
\data\
ngram 1=100
ngram 2=349
ngram 3=108

\1-grams:
-0.8266146	</s>
-99	<s>	-1.083184
-2.905796	กรอบ	-0.3681931
-2.428675	กระเทียม	-0.1293363
-2.604766	กลับบ้าน	-0.2996168
-2.905796	กัน	-0.3549816
-2.905796	ก็	-0.3465156
-1.791852	ก๋วยเตี๋ยว	-0.3278619
-2.905796	ก๋วยเตี๋ยวหมู	-0.333205
-1.826615	ขอ	-0.2422457
-1.458638	ครับ	-0.983481
-2.127645	งอก	-1.05829
-2.604766	จาน	-0.3453742
-1.701676	ชาม	-0.7770728
-2.905796	ตับ	-0.3002512
-2.604766	ตุ๋น	-0.3599832
-2.206826	ต้ม	-0.4786386
-1.507856	ต้มยำ	-0.08883014
-2.905796	ต้อง	-0.3572116
-2.428675	ถั่ว	-0.6531392
-2.127645	ถั่วงอก	-0.3892629
-2.905796	ทอด	-0.3549816
-2.060698	ที่	-0.8148086
-2.905796	ทุก	-0.3692761
-2.428675	ธรรมดา	-0.2754648
-2.428675	นะ	-0.6410135
-2.905796	นี้	-0.3610868
-1.675347	นึง	-1.167042
-2.303736	น้อย	-0.0629754
-1.826615	น้ำ	-0.3073078
-2.060698	น้ำตก	-0.2991665
-2.127645	น้ำใส	-0.1084966
-1.272327	บะหมี่	-0.3213204
-2.905796	บาท	-0.3002512
-2.905796	ปกติ	-0.3002512
-2.905796	ผม	-0.3610868
-1.951553	ผัก	-0.2519685
-2.905796	พริก	-0.3671074
-1.759668	พิเศษ	-0.2683877
-2.905796	พี่	-0.3002512
-2.428675	มาม่า	-0.3355494
-2.127645	ยำ	-0.1596753
-2.604766	ละ	-0.3610869
-2.002706	ลูกชิ้น	-0.3293812
-2.905796	วัน	-0.3698166
-2.604766	วุ้นเส้น	-0.351615
-2.206826	สอง	-0.1571591
-2.060698	สั่ง	-0.1473257
-2.905796	สาม	-0.3002512
-2.905796	สิบ	-0.3698166
-2.428675	สี่	-0.3448023
-2.604766	สุโขทัย	-0.2906355
-2.303736	หนึ่ง	-0.2236196
-2.206826	หมี่	-0.5270106
-1.951553	หมู	-0.1393928
-2.905796	หมูสับ	-0.3572116
-2.905796	หมูู	-0.3588766
-2.604766	หมููแดง	-0.1318312
-1.864403	หมูแดง	-0.1098134
-2.905796	ห้า	-0.3698166
-2.604766	อยาก	-0.1345439
-2.604766	อย่าง	-0.2989814
-2.905796	อะ	-0.3549816
-2.428675	เกาเหลา	-0.1903381
-2.060698	เกี๊ยว	-0.1793733
-2.905796	เกี๋ยว	-0.3698166
-2.428675	เครื่อง	-0.6547669
-2.303736	เครื่องใน	-0.5430995
-2.604766	เจียว	-0.06551887
-2.905796	เด็ก	-0.333205
-1.864403	เนื้อ	-0.1253701
-2.905796	เปื่อย	-0.3533016
-2.905796	เป็ด	-0.3627371
-2.206826	เป็น	-0.5247158
-1.864403	เผ็ด	-0.3972074
-1.791852	เพิ่ม	-0.6078013
-2.127645	เยอะ	-0.5824623
-1.951553	เย็นตาโฟ	-0.2308777
-2.127645	เรือ	-0.4642857
-2.905796	เลือด	-0.3002512
-1.272327	เล็ก	-0.4752485
-1.086252	เส้น	-0.9691595
-1.675347	เอา	-0.2388314
-2.604766	แบบ	-0.3470852
-2.905796	และ	-0.3698166
-1.583577	แห้ง	-0.2450791
-2.905796	โรย	-0.368735
-2.428675	ใน	-0.112481
-1.525585	ใส่	-0.5374981
-1.583577	ใหญ่	-0.09864464
-2.604766	ไก่	-0.2906355
-2.604766	ไก่ฉีก	-0.2906355
-2.604766	ไก่ตุ่น	-0.2906355
-2.604766	ไข่	-0.2970695
-2.604766	ได้	-0.3583224
-1.414434	ไม่	-0.8482623
-2.905796	ไม่งอก	-0.3002512
-1.729705	ไม่ผัก	-1.475708
-2.905796	ไม่เอา	-0.3671074
-2.905796	ไม่ใส่	-0.368735

\2-grams:
-1.124939	<s> ก๋วยเตี๋ยว	0.02760369
-2.320443	<s> ก๋วยเตี๋ยวหมู
-1.037789	<s> ขอ	-0.1029146
-0.6642079	<s> บะหมี่	0.02317071
-2.320443	<s> ผม
-2.320443	<s> มาม่า
-2.320443	<s> วัน
-2.320443	<s> วุ้นเส้น
-1.39715	<s> สั่ง	-0.01455957
-2.320443	<s> หมี่
-2.349647	<s> อยาก	-0.03265737
-2.349647	<s> เกาเหลา	-0.08272064
-2.320443	<s> เย็นตาโฟ
-1.234083	<s> เล็ก	-0.435509
-0.5109795	<s> เส้น	-0.3628358
-0.9652379	<s> เอา	-0.01209117
-0.2412618	กรอบ หนึ่ง
-0.7183831	กระเทียม </s>
-0.7475872	กระเทียม เจียว	-0.03265737
-0.5422918	กลับบ้าน </s>
-0.5422918	กลับบ้าน สาม
-0.2412618	กัน ครับ
-0.2412618	ก็ บะหมี่
-1.355205	ก๋วยเตี๋ยว หมู
-1.355205	ก๋วยเตี๋ยว เด็ก
-1.384409	ก๋วยเตี๋ยว เนื้อ	-0.1465677
-1.355205	ก๋วยเตี๋ยว เป็ด
-0.4319118	ก๋วยเตี๋ยว เรือ	-0.172408
-1.384409	ก๋วยเตี๋ยว เส้น	-0.00195013
-0.2412618	ก๋วยเตี๋ยวหมู เส้น
-1.320443	ขอ ก๋วยเตี๋ยว
-1.349647	ขอ บะหมี่
-1.320443	ขอ สั่ง
-1.320443	ขอ เกาเหลา
-1.349647	ขอ เป็น	0.2351951
-1.320443	ขอ เผ็ด
-0.5984077	ขอ เส้น	0.1829049
-0.06694679	ครับ </s>
-1.68842	ครับ ขอ
-1.68842	ครับ พี่
-1.717624	ครับ ไม่
-0.07918125	งอก </s>
-1.019413	งอก ไม่
-0.5422918	จาน ครับ
-0.5422918	จาน นึง
-1.474586	ชาม </s>
-0.8352401	ชาม ครับ	0.6381302
-0.1627273	ชาม นึง	0.876333
-0.2412618	ตับ </s>
-0.5422918	ตุ๋น ชาม
-0.5422918	ตุ๋น สี่
-0.9402318	ต้ม </s>
-0.2181965	ต้ม ยำ
-0.9171665	ต้มยำ </s>
-1.639202	ต้มยำ ครับ
-1.668406	ต้มยำ สุโขทัย
-1.668406	ต้มยำ หนึ่ง
-1.639202	ต้มยำ อย่าง
-1.668406	ต้มยำ เผ็ด
-0.9171665	ต้มยำ เพิ่ม	0.1348129
-1.639202	ต้มยำ เส้น
-1.639202	ต้มยำ แบบ
-1.639202	ต้มยำ ใส่
-1.668406	ต้มยำ ไก่
-1.639202	ต้มยำ ไม่
-1.668406	ต้มยำ ไม่ผัก	1.00781
-1.639202	ต้มยำ ไม่ใส่
-0.2412618	ต้อง ใส่
-0.1082413	ถั่ว งอก	0.5711834
-0.4092713	ถั่วงอก </s>
-1.019413	ถั่วงอก ครับ
-1.019413	ถั่วงอก เพิ่ม
-1.019413	ถั่วงอก เยอะ
-0.2412618	ทอด ครับ
-1.08636	ที่ </s>
-1.08636	ที่ ครับ
-0.146128	ที่ นึง	1.064195
-0.2412618	ทุก อย่าง
-0.7183831	ธรรมดา </s>
-0.7183831	ธรรมดา ที่
-0.7183831	ธรรมดา ไม่
-0.1082413	นะ ครับ	0.6381302
-0.2412618	นี้ เอา
-0.2552725	นึง </s>
-0.4101745	นึง ครับ	0.5940869
-0.872526	น้อย </s>
-0.872526	น้อย น้อย	-0.1057423
-1.320443	น้ำ ครับ
-1.320443	น้ำ ต้มยำ
-1.349647	น้ำ พิเศษ
-1.320443	น้ำ สอง
-1.320443	น้ำ สี่
-1.320443	น้ำ หนึ่ง
-0.5984077	น้ำ ไม่	0.1999563
-1.320443	น้ำ ไม่ผัก
-0.3643245	น้ำตก </s>
-1.08636	น้ำตก พิเศษ
-1.115564	น้ำตก ไม่ผัก	1.00781
-1.048617	น้ำใส </s>
-1.019413	น้ำใส ชาม
-1.019413	น้ำใส ธรรมดา
-1.048617	น้ำใส ไม่ผัก	1.00781
-1.87473	บะหมี่ ครับ
-0.7883704	บะหมี่ ต้มยำ	-0.0323892
-1.903934	บะหมี่ น้ำ
-1.903934	บะหมี่ พิเศษ
-1.903934	บะหมี่ ลูกชิ้น
-1.87473	บะหมี่ หมู
-1.903934	บะหมี่ หมููแดง	-0.03265737
-0.9514369	บะหมี่ หมูแดง	-0.06009381
-0.9344984	บะหมี่ เกี๊ยว	-0.05674824
-1.87473	บะหมี่ เกี๋ยว
-1.903934	บะหมี่ เนื้อ
-1.87473	บะหมี่ เพิ่ม
-1.87473	บะหมี่ เส้น
-0.9344984	บะหมี่ แห้ง	0.0532088
-1.87473	บะหมี่ ใส่
-1.903934	บะหมี่ ไก่ฉีก
-1.903934	บะหมี่ ไก่ตุ่น
-0.2412618	บาท </s>
-0.2412618	ปกติ </s>
-0.2412618	ผม เอา
-1.224708	ผัก </s>
-1.195504	ผัก ครับ
-1.195504	ผัก นะ
-1.195504	ผัก สอง
-1.195504	ผัก เยอะ
-0.5853626	ผัก ไม่	-0.07060651
-0.2412618	พริก เยอะ
-0.4640965	พิเศษ </s>
-1.38739	พิเศษ ชาม
-1.38739	พิเศษ ที่
-1.38739	พิเศษ ละ
-1.38739	พิเศษ สี่
-1.38739	พิเศษ หมูแดง
-1.416594	พิเศษ เส้น
-1.38739	พิเศษ ใส่
-0.2412618	พี่ </s>
-0.7183831	มาม่า ชาม
-0.7183831	มาม่า ต้มยำ
-0.7183831	มาม่า แห้ง
-1.019413	ยำ </s>
-1.019413	ยำ พิเศษ
-1.019413	ยำ เผ็ด
-1.048617	ยำ ไม่	0.1769521
-1.019413	ยำ ไม่ผัก
-0.5422918	ละ กัน
-0.5422918	ละ ชาม
-0.5342101	ลูกชิ้น </s>
-1.144352	ลูกชิ้น พิเศษ
-1.144352	ลูกชิ้น สอง
-1.144352	ลูกชิ้น เนื้อ
-1.144352	ลูกชิ้น ใส่
-1.144352	ลูกชิ้น ไม่
-0.2412618	วัน นี้
-0.5422918	วุ้นเส้น ต้มยำ
-0.5422918	วุ้นเส้น เย็นตาโฟ
-0.9402318	สอง </s>
-0.9402318	สอง ครับ
-0.969436	สอง ชาม
-0.9402318	สอง ที่
-1.115564	สั่ง บะหมี่
-1.08636	สั่ง มาม่า
-1.08636	สั่ง เป็น
-1.08636	สั่ง เย็นตาโฟ
-1.115564	สั่ง เส้น
-0.2412618	สาม </s>
-0.2412618	สิบ ห้า
-0.7183831	สี่ กลับบ้าน
-0.7183831	สี่ สิบ
-0.7183831	สี่ เล็ก
-0.5422918	สุโขทัย </s>
-0.5422918	สุโขทัย ไม่ผัก
-0.8433218	หนึ่ง จาน
-0.872526	หนึ่ง ชาม	-0.09966979
-0.8433218	หนึ่ง ที่
-0.9402318	หมี่ ต้มยำ
-0.2181965	หมี่ แห้ง	-0.02477495
-1.195504	หมู กรอบ
-1.224708	หมู ต้ม	0.2351951
-1.224708	หมู น้ำตก
-1.224708	หมู น้ำใส
-1.195504	หมู เส้น
-1.195504	หมู แห้ง
-0.2412618	หมูสับ ใส่
-0.2412618	หมูู แห้ง
-0.571496	หมููแดง น้ำตก
-1.282655	หมูแดง </s>
-1.282655	หมูแดง ชาม
-1.311859	หมูแดง น้ำใส
-1.282655	หมูแดง พิเศษ
-1.282655	หมูแดง แห้ง
-1.282655	หมูแดง ใส่
-1.282655	หมูแดง ไม่
-1.311859	หมูแดง ไม่ผัก
-1.282655	หมูแดง ไม่เอา
-0.2412618	ห้า บาท
-0.571496	อยาก ได้
-0.5422918	อย่าง </s>
-0.5422918	อย่าง ละ
-0.2412618	อะ ครับ
-0.7183831	เกาเหลา ลูกชิ้น
-0.7475872	เกาเหลา เนื้อ
-1.08636	เกี๊ยว ที่
-1.08636	เกี๊ยว น้ำ
-1.115564	เกี๊ยว หมูแดง
-1.115564	เกี๊ยว เพิ่ม
-1.08636	เกี๊ยว ไม่
-0.2412618	เกี๋ยว ทอด
-0.1082413	เครื่อง ใน	-0.01910368
-0.1212865	เครื่องใน </s>
-0.571496	เจียว </s>
-0.2412618	เด็ก เส้น
-1.282655	เนื้อ ครับ
-1.311859	เนื้อ ชาม	0.3368684
-1.311859	เนื้อ ตุ๋น
-1.282655	เนื้อ น้ำตก
-1.282655	เนื้อ เปื่อย
-1.311859	เนื้อ เส้น	-0.00195013
-1.282655	เนื้อ เอา
-1.282655	เนื้อ ไม่
-0.2412618	เปื่อย ไม่
-0.2412618	เป็ด พิเศษ
-0.2181965	เป็น บะหมี่
-0.9402318	เป็น เกี๊ยว
-0.6725128	เผ็ด </s>
-1.282655	เผ็ด ครับ
-1.282655	เผ็ด ที่
-1.282655	เผ็ด นะ
-1.282655	เผ็ด น้อย
-1.282655	เผ็ด ปกติ
-0.6725128	เผ็ด เผ็ด
-1.355205	เพิ่ม ที่
-0.4149733	เพิ่ม ลูกชิ้น	0.03806078
-1.355205	เพิ่ม เกี๊ยว
-1.355205	เพิ่ม เครื่อง
-1.355205	เพิ่ม เนื้อ
-0.7450634	เพิ่ม เส้น	-0.1011202
-1.355205	เพิ่ม ไข่
-0.4092713	เยอะ </s>
-0.4092713	เยอะ เยอะ	0.007487684
-1.195504	เย็นตาโฟ กลับบ้าน
-1.224708	เย็นตาโฟ ชาม	0.3368684
-1.195504	เย็นตาโฟ พิเศษ
-0.5853626	เย็นตาโฟ เส้น	0.06166682
-1.224708	เย็นตาโฟ ไม่	0.1769521
-1.019413	เรือ พิเศษ
-1.019413	เรือ เนื้อ
-0.2973777	เรือ เส้น	0.2521417
-0.2412618	เลือด </s>
-1.87473	เล็ก </s>
-0.6792259	เล็ก ต้มยำ	-0.0001520291
-0.7883704	เล็ก น้ำ	-0.02194749
-1.87473	เล็ก น้ำตก
-1.87473	เล็ก พิเศษ
-1.903934	เล็ก ยำ
-0.7883704	เล็ก หมู	-0.05430814
-1.87473	เล็ก หมูสับ
-1.87473	เล็ก หมูู
-1.87473	เล็ก อะ
-1.903934	เล็ก เนื้อ
-1.903934	เล็ก เย็นตาโฟ	-0.1415913
-0.9514369	เล็ก แห้ง	-0.03794845
-1.903934	เล็ก ไม่
-2.09001	เส้น </s>
-2.060806	เส้น น้อย
-2.09001	เส้น บะหมี่
-2.060806	เส้น มาม่า
-1.450664	เส้น หมี่	0.2988121
-2.060806	เส้น เพิ่ม
-0.2754759	เส้น เล็ก	0.1397908
-0.4973246	เส้น ใหญ่	-0.01582105
-1.500915	เอา ก๋วยเตี๋ยว
-1.471711	เอา ต้มยำ
-0.5484173	เอา บะหมี่	-0.03758489
-1.471711	เอา วุ้นเส้น
-1.471711	เอา หมี่
-1.471711	เอา เครื่องใน
-1.500915	เอา เป็น
-1.471711	เอา เย็นตาโฟ
-1.500915	เอา เส้น
-0.5422918	แบบ เผ็ด
-0.5422918	แบบ ไม่
-0.2412618	และ ก็
-1.563481	แห้ง </s>
-1.563481	แห้ง จาน
-1.563481	แห้ง ชาม
-0.9533394	แห้ง ต้มยำ	-0.04864684
-1.563481	แห้ง ธรรมดา
-1.563481	แห้ง น้ำตก
-1.563481	แห้ง พิเศษ
-1.592685	แห้ง สอง
-1.592685	แห้ง เพิ่ม
-1.563481	แห้ง แบบ
-0.6401877	แห้ง ไม่	0.2981596
-1.563481	แห้ง ไม่ผัก
-0.2412618	โรย กระเทียม
-0.7475872	ใน </s>
-0.7183831	ใน ครับ
-1.621473	ใส่ กระเทียม
-1.621473	ใส่ ตับ
-1.650677	ใส่ ถั่ว	0.4881068
-0.6812412	ใส่ ถั่วงอก	0.1547256
-1.621473	ใส่ ทุก
-0.6812412	ใส่ ผัก
-1.621473	ใส่ พริก
-1.621473	ใส่ หมูแดง
-1.650677	ใส่ เครื่อง	0.4881068
-1.011331	ใส่ เครื่องใน	0.4062369
-1.621473	ใส่ เลือด
-1.621473	ใส่ ไข่
-1.563481	ใหญ่ ครับ
-1.563481	ใหญ่ ชาม
-1.592685	ใหญ่ ต้ม	0.2351951
-1.563481	ใหญ่ ต้มยำ
-1.563481	ใหญ่ ธรรมดา
-1.563481	ใหญ่ นะ
-1.592685	ใหญ่ น้ำ	-0.04211855
-1.592685	ใหญ่ น้ำใส
-1.563481	ใหญ่ พิเศษ
-1.563481	ใหญ่ หมูแดง
-1.592685	ใหญ่ เพิ่ม
-1.592685	ใหญ่ เย็นตาโฟ	-0.1415913
-1.563481	ใหญ่ และ
-1.592685	ใหญ่ แห้ง	-0.05534283
-1.563481	ใหญ่ ไม่
-0.5422918	ไก่ </s>
-0.5422918	ไก่ ไม่ผัก
-0.5422918	ไก่ฉีก </s>
-0.5422918	ไก่ฉีก ไม่ผัก
-0.5422918	ไก่ตุ่น </s>
-0.5422918	ไก่ตุ่น ไม่ผัก
-0.5422918	ไข่ </s>
-0.5422918	ไข่ ต้ม
-0.5422918	ได้ ก๋วยเตี๋ยว
-0.5422918	ได้ เย็นตาโฟ
-1.732623	ไม่ กระเทียม
-1.122482	ไม่ งอก	0.6734866
-1.732623	ไม่ ต้อง
-1.010588	ไม่ ผัก	0.0546098
-1.122482	ไม่ เผ็ด	-0.0008805394
-1.732623	ไม่ เอา
-1.732623	ไม่ โรย
-0.2609128	ไม่ ใส่	0.09990859
-0.2412618	ไม่งอก </s>
-0.02996322	ไม่ผัก </s>
-1.417353	ไม่ผัก ไม่งอก
-0.2412618	ไม่เอา ถั่วงอก
-0.2412618	ไม่ใส่ ถั่ว

\3-grams:
-0.4833928	<s> ก๋วยเตี๋ยว เรือ
-1.233538	<s> ขอ บะหมี่
-1.233538	<s> ขอ เป็น
-0.4393327	<s> ขอ เส้น
-0.4212634	ชาม ครับ </s>
-0.4212634	นะ ครับ </s>
-0.3742483	นึง ครับ </s>
-1.037243	นึง ครับ ไม่
-0.4212634	ถั่ว งอก </s>
-0.6692663	ไม่ งอก </s>
-0.493175	หนึ่ง ชาม ครับ
-0.493175	เนื้อ ชาม นึง
-0.493175	เย็นตาโฟ ชาม นึง
-0.493175	หมู ต้ม ยำ
-0.493175	ใหญ่ ต้ม ยำ
-1.037243	บะหมี่ ต้มยำ สุโขทัย
-1.146388	เล็ก ต้มยำ เพิ่ม
-1.146388	เล็ก ต้มยำ ไก่
-0.6692663	แห้ง ต้มยำ </s>
-0.493175	ใส่ ถั่ว งอก
-0.8911151	ใส่ ถั่วงอก </s>
-0.5040476	ชาม นึง </s>
-0.5705429	ชาม นึง ครับ
-0.6431122	ที่ นึง </s>
-0.8911151	ที่ นึง ครับ
-0.493175	น้อย น้อย </s>
-1.037243	เล็ก น้ำ พิเศษ
-0.493175	ใหญ่ น้ำ ไม่
-1.359115	<s> บะหมี่ ต้มยำ
-1.607118	<s> บะหมี่ ลูกชิ้น
-1.607118	<s> บะหมี่ หมููแดง
-0.9441236	<s> บะหมี่ หมูแดง
-0.8129134	<s> บะหมี่ แห้ง
-1.607118	<s> บะหมี่ ไก่ฉีก
-1.607118	<s> บะหมี่ ไก่ตุ่น
-0.7222934	เอา บะหมี่ เกี๊ยว
-0.794205	ไม่ ผัก ไม่
-0.6431122	เพิ่ม ลูกชิ้น </s>
-0.9702963	<s> สั่ง เส้น
-0.6692663	เส้น หมี่ แห้ง
-1.037243	เล็ก หมู ต้ม
-1.037243	เล็ก หมู น้ำตก
-1.037243	เล็ก หมู น้ำใส
-0.493175	บะหมี่ หมููแดง น้ำตก
-0.9702963	บะหมี่ หมูแดง น้ำใส
-0.9702963	บะหมี่ หมูแดง ไม่ผัก
-0.493175	<s> อยาก ได้
-0.493175	<s> เกาเหลา เนื้อ
-0.8911151	บะหมี่ เกี๊ยว หมูแดง
-0.8911151	บะหมี่ เกี๊ยว เพิ่ม
-0.493175	ใส่ เครื่อง ใน
-0.4212634	ใส่ เครื่องใน </s>
-0.493175	กระเทียม เจียว </s>
-0.493175	ก๋วยเตี๋ยว เนื้อ เส้น
-0.493175	ขอ เป็น บะหมี่
-0.6692663	ไม่ เผ็ด </s>
-0.794205	ต้มยำ เพิ่ม ลูกชิ้น
-0.4212634	เยอะ เยอะ </s>
-0.493175	เล็ก เย็นตาโฟ ชาม
-0.493175	ใหญ่ เย็นตาโฟ ไม่
-0.1760913	ก๋วยเตี๋ยว เรือ เส้น
-0.243038	<s> เล็ก น้ำ
-0.7892402	<s> เล็ก แห้ง
-0.5898255	เส้น เล็ก ต้มยำ
-1.48821	เส้น เล็ก น้ำ
-1.736213	เส้น เล็ก ยำ
-0.69897	เส้น เล็ก หมู
-1.736213	เส้น เล็ก เนื้อ
-1.736213	เส้น เล็ก เย็นตาโฟ
-1.736213	เส้น เล็ก แห้ง
-1.736213	เส้น เล็ก ไม่
-1.512344	<s> เส้น หมี่
-0.1532284	<s> เส้น เล็ก
-0.6651117	<s> เส้น ใหญ่
-0.493175	ก๋วยเตี๋ยว เส้น ใหญ่
-0.5462022	ขอ เส้น เล็ก
-0.493175	เนื้อ เส้น ใหญ่
-0.6692663	เพิ่ม เส้น </s>
-0.6692663	เย็นตาโฟ เส้น ใหญ่
-0.794205	เรือ เส้น เล็ก
-1.306088	<s> เอา ก๋วยเตี๋ยว
-0.5765983	<s> เอา บะหมี่
-1.306088	<s> เอา เป็น
-0.8911151	บะหมี่ แห้ง ไม่
-0.794205	หมี่ แห้ง ต้มยำ
-0.9702963	เล็ก แห้ง สอง
-0.493175	ใหญ่ แห้ง ไม่
-0.6692663	เครื่อง ใน </s>
-1.422594	ไม่ ใส่ ถั่ว
-0.6283889	ไม่ ใส่ ถั่วงอก
-1.174591	ไม่ ใส่ ผัก
-1.422594	ไม่ ใส่ เครื่อง
-1.174591	ไม่ ใส่ เครื่องใน
-1.514364	เส้น ใหญ่ ต้ม
-1.514364	เส้น ใหญ่ น้ำ
-1.514364	เส้น ใหญ่ น้ำใส
-1.514364	เส้น ใหญ่ เพิ่ม
-1.514364	เส้น ใหญ่ เย็นตาโฟ
-1.514364	เส้น ใหญ่ แห้ง
-0.5462022	น้ำ ไม่ ใส่
-0.6692663	ผัก ไม่ งอก
-0.493175	ยำ ไม่ ใส่
-0.493175	เย็นตาโฟ ไม่ ใส่
-0.7222934	แห้ง ไม่ ผัก
-0.9702963	แห้ง ไม่ ใส่
-0.493175	ต้มยำ ไม่ผัก </s>
-0.493175	น้ำตก ไม่ผัก </s>
-0.493175	น้ำใส ไม่ผัก </s>

\end\
