
\data\
ngram 1=92
ngram 2=294
ngram 3=81
ngram 4=36

\1-grams:
-0.8149963	</s>
-99	<s>	-1.08471
-2.320146	กระเทียม	-0.2626958
-2.496238	กลับบ้าน	-0.197258
-1.797268	ก๋วยเตี๋ยว	-0.1377739
-2.797267	ก๋วยเตี๋ยวหมู	-0.2334046
-1.797268	ขอ	-0.1069715
-1.518514	ครับ	-0.893003
-2.098298	งอก	-0.00491903
-2.496238	จาน	-0.2474991
-1.843025	ชาม	-1.201741
-2.797267	ตับ	-0.1980766
-2.797267	ตุ๋น	-0.2681667
-2.098298	ต้ม	-0.02092782
-1.454845	ต้มยำ	-0.07047257
-2.797267	ต้อง	-0.2575994
-2.496238	ถั่ว	-0.3703813
-2.195208	ถั่วงอก	-0.4490544
-2.098298	ที่	-0.07528548
-2.797267	ทุก	-0.2695565
-2.496238	ธรรมดา	-0.2489565
-2.320146	นะ	-0.648022
-2.797267	นี้	-0.2604426
-1.683324	นึง	-0.4877594
-2.195208	น้อย	-0.2984015
-1.755875	น้ำ	-0.1096467
-2.098298	น้ำตก	-0.2588052
-2.195208	น้ำใส	-0.2900814
-1.292118	บะหมี่	-0.3958545
-2.797267	บาท	-0.1980766
-2.797267	ปกติ	-0.1980766
-2.797267	ผม	-0.2604426
-1.95217	ผัก	-0.2085609
-2.797267	พริก	-0.2660737
-1.797268	พิเศษ	-0.5750727
-2.797267	พี่	-0.1980766
-2.496238	มาม่า	-0.2518566
-2.019116	ยำ	-0.1778697
-2.019116	ลูกชิ้น	-0.1769466
-2.797267	วัน	-0.2695565
-2.496238	วุ้นเส้น	-0.2489565
-2.320146	สอง	-0.1745501
-2.496238	สั่ง	-0.2625628
-2.797267	สาม	-0.1980766
-2.797267	สิบ	-0.2695565
-2.320146	สี่	-0.2430974
-2.496238	สุโขทัย	-0.1864727
-2.496238	หนึ่ง	-0.2653738
-2.195208	หมี่	-0.4982725
-1.95217	หมู	-0.2655295
-2.797267	หมูสับ	-0.2575994
-2.797267	หมูู	-0.258312
-2.496238	หมููแดง	-0.3703813
-1.894178	หมูแดง	-0.24017
-2.797267	ห้า	-0.2695565
-2.496238	อยาก	-0.3724709
-2.797267	อย่าง	-0.1980766
-2.797267	อะ	-0.2568857
-2.320146	เกาเหลา	-0.3267006
-2.195208	เกี๊ยว	-0.2482284
-2.320146	เครื่อง	-0.659303
-2.320146	เครื่องใน	-0.589213
-2.496238	เจียว	-0.3016854
-2.797267	เด็ก	-0.2334046
-1.894178	เนื้อ	-0.2016682
-2.797267	เปื่อย	-0.2525786
-2.797267	เป็ด	-0.2632673
-2.320146	เป็น	-0.3108276
-1.755875	เผ็ด	-0.3313446
-1.95217	เพิ่ม	-0.3471314
-2.019116	เยอะ	-0.5842777
-1.894178	เย็นตาโฟ	-0.3784942
-2.195208	เรือ	-0.4832435
-2.797267	เลือด	-0.1980766
-1.253199	เล็ก	-0.4195657
-1.089697	เส้น	-1.104443
-1.651139	เอา	-0.4033798
-2.496238	แบบ	-0.2445696
-1.566819	แห้ง	-0.109666
-2.797267	โรย	-0.2681667
-2.320146	ใน	-0.2485101
-1.541995	ใส่	-0.2508088
-1.593148	ใหญ่	-0.1911467
-2.496238	ไก่	-0.1864727
-2.797267	ไก่ฉีก	-0.2604426
-2.496238	ไก่ตุ่น	-0.1864727
-2.797267	ไข่	-0.2667725
-2.496238	ได้	-0.2575994
-1.399328	ไม่	-0.7404554
-1.651139	ไม่ผัก	-1.103918
-2.797267	ไม่เอา	-0.2674702
-2.797267	ไม่ใส่	-0.2688621

\2-grams:
-1.20412	<s> ก๋วยเตี๋ยว	-0.1066313
-2.316431	<s> ก๋วยเตี๋ยวหมู
-1.028029	<s> ขอ	-0.08879617
-0.6398485	<s> บะหมี่	0.08361019
-2.316431	<s> ผม
-2.316431	<s> มาม่า
-2.316431	<s> วัน
-2.316431	<s> วุ้นเส้น
-1.91992	<s> สั่ง
-2.316431	<s> หมี่
-1.91992	<s> อยาก	0.2626042
-1.91992	<s> เกาเหลา	0.09972642
-1.20412	<s> เล็ก	-0.198586
-0.4909095	<s> เส้น	-0.2941943
-0.9822713	<s> เอา	-0.09067675
-0.8112807	กระเทียม </s>
-0.4147698	กระเทียม เจียว	0.2626042
-0.6351894	กลับบ้าน </s>
-0.6351894	กลับบ้าน สาม
-1.334159	ก๋วยเตี๋ยว หมู
-1.334159	ก๋วยเตี๋ยว เด็ก
-1.334159	ก๋วยเตี๋ยว เนื้อ
-1.334159	ก๋วยเตี๋ยว เป็ด
-1.261948	ก๋วยเตี๋ยว เรือ	0.1682513
-0.9376485	ก๋วยเตี๋ยว เส้น	0.05224789
-0.3341594	ก๋วยเตี๋ยวหมู เส้น
-1.334159	ขอ ก๋วยเตี๋ยว
-0.9376485	ขอ บะหมี่
-1.334159	ขอ เกาเหลา
-1.334159	ขอ เป็น
-1.334159	ขอ เผ็ด
-1.261948	ขอ เส้น	0.1306314
-0.1026623	ครับ </s>
-1.612913	ครับ ขอ
-1.612913	ครับ พี่
-1.216402	ครับ ไม่
-0.9609184	งอก </s>
-1.033129	งอก ไม่
-0.6351894	จาน ครับ
-0.6351894	จาน นึง
-1.288402	ชาม ครับ
-0.05115252	ชาม นึง	-0.1698872
-0.3341594	ตับ </s>
-0.3341594	ตุ๋น สี่
-1.033129	ต้ม </s>
-0.9609184	ต้ม ยำ
-1.604371	ต้มยำ </s>
-1.676582	ต้มยำ ครับ
-1.280071	ต้มยำ สุโขทัย
-1.676582	ต้มยำ หนึ่ง
-1.280071	ต้มยำ เผ็ด
-0.9721386	ต้มยำ เพิ่ม	0.1063306
-1.676582	ต้มยำ เส้น
-1.676582	ต้มยำ แบบ
-1.676582	ต้มยำ ใส่
-1.280071	ต้มยำ ไก่
-1.676582	ต้มยำ ไม่
-1.280071	ต้มยำ ไม่ผัก	1.064837
-1.676582	ต้มยำ ไม่ใส่
-0.3341594	ต้อง ใส่
-0.2386785	ถั่ว งอก	-0.06092903
-0.2317759	ถั่วงอก </s>
-0.9362194	ถั่วงอก เยอะ
-1.033129	ที่ ครับ
-0.9609184	ที่ นึง	0.2966725
-0.3341594	ทุก อย่าง
-0.6351894	ธรรมดา ที่
-0.6351894	ธรรมดา ไม่
-0.1068372	นะ ครับ	0.3570182
-0.3341594	นี้ เอา
-0.1597008	นึง </s>
-1.375892	นึง ครับ	0.7133236
-0.5397085	น้อย </s>
-0.5397085	น้อย น้อย	0.03662995
-1.375552	น้ำ ครับ
-1.375552	น้ำ ต้มยำ
-1.375552	น้ำ พิเศษ
-1.375552	น้ำ สอง
-1.375552	น้ำ สี่
-1.375552	น้ำ หนึ่ง
-1.303341	น้ำ ไม่	0.06878574
-1.375552	น้ำ ไม่ผัก
-0.6366185	น้ำตก </s>
-1.033129	น้ำตก พิเศษ
-0.6366185	น้ำตก ไม่ผัก	1.064837
-0.5397085	น้ำใส </s>
-0.5397085	น้ำใส ไม่ผัก	1.064837
-0.7269987	บะหมี่ ต้มยำ	-0.01060545
-1.442798	บะหมี่ น้ำ
-1.442798	บะหมี่ พิเศษ
-1.442798	บะหมี่ ลูกชิ้น
-1.442798	บะหมี่ หมููแดง	0.2626042
-1.767098	บะหมี่ หมูแดง	0.01560337
-1.134866	บะหมี่ เกี๊ยว
-1.839309	บะหมี่ เนื้อ
-1.839309	บะหมี่ เพิ่ม
-0.80618	บะหมี่ แห้ง	-0.02694195
-1.839309	บะหมี่ ใส่
-1.839309	บะหมี่ ไก่ฉีก
-1.442798	บะหมี่ ไก่ตุ่น
-0.3341594	บาท </s>
-0.3341594	ปกติ </s>
-0.3341594	ผม เอา
-0.7827466	ผัก </s>
-1.179258	ผัก ครับ
-1.179258	ผัก นะ
-1.179258	ผัก เยอะ
-0.7827466	ผัก ไม่	-0.06846368
-0.3341594	พริก เยอะ
-0.2218488	พิเศษ </s>
-1.334159	พิเศษ ชาม
-1.334159	พิเศษ ที่
-1.334159	พิเศษ สี่
-1.334159	พิเศษ หมูแดง
-0.3341594	พี่ </s>
-0.6351894	มาม่า ชาม
-0.6351894	มาม่า แห้ง
-1.112311	ยำ </s>
-1.112311	ยำ พิเศษ
-1.112311	ยำ เผ็ด
-0.7157997	ยำ ไม่	0.1727424
-1.112311	ยำ ไม่ผัก
-0.7157997	ลูกชิ้น </s>
-1.112311	ลูกชิ้น พิเศษ
-1.112311	ลูกชิ้น เนื้อ
-1.112311	ลูกชิ้น ใส่
-1.112311	ลูกชิ้น ไม่
-0.3341594	วัน นี้
-0.6351894	วุ้นเส้น ต้มยำ
-0.6351894	วุ้นเส้น เย็นตาโฟ
-0.8112807	สอง </s>
-0.8112807	สอง ครับ
-0.8112807	สอง ชาม
-0.6351894	สั่ง เป็น
-0.6351894	สั่ง เย็นตาโฟ
-0.3341594	สาม </s>
-0.3341594	สิบ ห้า
-0.8112807	สี่ กลับบ้าน
-0.8112807	สี่ สิบ
-0.8112807	สี่ เล็ก
-0.6351894	สุโขทัย </s>
-0.6351894	สุโขทัย ไม่ผัก
-0.6351894	หนึ่ง จาน
-0.6351894	หนึ่ง ที่
-0.9362194	หมี่ ต้มยำ
-0.2317759	หมี่ แห้ง	-0.006433211
-0.7827466	หมู ต้ม	-0.06092903
-1.179258	หมู น้ำตก
-0.7827466	หมู น้ำใส
-1.179258	หมู เส้น
-1.179258	หมู แห้ง
-0.3341594	หมูสับ ใส่
-0.3341594	หมูู แห้ง
-0.2386785	หมููแดง น้ำตก
-1.237249	หมูแดง ชาม
-0.8407385	หมูแดง น้ำใส
-1.237249	หมูแดง พิเศษ
-1.237249	หมูแดง แห้ง
-1.237249	หมูแดง ใส่
-1.237249	หมูแดง ไม่ผัก
-1.237249	หมูแดง ไม่เอา
-0.3341594	ห้า บาท
-0.2386785	อยาก ได้
-0.3341594	อย่าง </s>
-0.3341594	อะ ครับ
-0.8112807	เกาเหลา ลูกชิ้น
-0.4147698	เกาเหลา เนื้อ
-0.9362194	เกี๊ยว ที่
-0.9362194	เกี๊ยว น้ำ
-0.9362194	เกี๊ยว หมูแดง
-0.9362194	เกี๊ยว เพิ่ม
-0.1068372	เครื่อง ใน	0.1400617
-0.1068372	เครื่องใน </s>
-0.2386785	เจียว </s>
-0.3341594	เด็ก เส้น
-1.237249	เนื้อ ครับ
-0.8407385	เนื้อ ชาม	0.8429883
-1.237249	เนื้อ ตุ๋น
-1.237249	เนื้อ เปื่อย
-1.237249	เนื้อ เส้น
-1.237249	เนื้อ เอา
-1.237249	เนื้อ ไม่
-0.3341594	เปื่อย ไม่
-0.3341594	เป็ด พิเศษ
-0.4147698	เป็น บะหมี่
-0.8112807	เป็น เกี๊ยว
-0.6711086	เผ็ด </s>
-1.375552	เผ็ด ครับ
-1.375552	เผ็ด ที่
-1.375552	เผ็ด นะ
-1.375552	เผ็ด น้อย
-1.375552	เผ็ด ปกติ
-0.6711086	เผ็ด เผ็ด
-0.474814	เพิ่ม ลูกชิ้น	0.02188362
-1.179258	เพิ่ม เครื่อง
-1.179258	เพิ่ม เนื้อ
-1.179258	เพิ่ม เส้น
-1.179258	เพิ่ม ไข่
-0.4078672	เยอะ </s>
-0.4078672	เยอะ เยอะ	-0.1043209
-1.237249	เย็นตาโฟ กลับบ้าน
-0.8407385	เย็นตาโฟ ชาม	0.8429883
-0.5328059	เย็นตาโฟ เส้น	0.09258321
-0.8407385	เย็นตาโฟ ไม่	0.1727424
-0.9362194	เรือ เนื้อ
-0.2317759	เรือ เส้น
-0.3341594	เลือด </s>
-1.878227	เล็ก </s>
-0.640978	เล็ก ต้มยำ	0.02318019
-0.7659168	เล็ก น้ำ
-1.878227	เล็ก น้ำตก
-1.481717	เล็ก ยำ
-0.7659168	เล็ก หมู	0.1028928
-1.878227	เล็ก หมูสับ
-1.878227	เล็ก หมูู
-1.878227	เล็ก อะ
-1.878227	เล็ก เนื้อ
-1.481717	เล็ก เย็นตาโฟ	-0.04357658
-1.806016	เล็ก แห้ง	-0.0215344
-1.878227	เล็ก ไม่
-2.04173	เส้น </s>
-2.04173	เส้น น้อย
-2.04173	เส้น บะหมี่
-2.04173	เส้น มาม่า
-1.337286	เส้น หมี่	0.3125433
-0.2604122	เส้น เล็ก	0.09529272
-0.5034502	เส้น ใหญ่	0.06747322
-1.083777	เอา ก๋วยเตี๋ยว
-1.480287	เอา ต้มยำ
-0.447158	เอา บะหมี่	-0.008084688
-1.480287	เอา วุ้นเส้น
-1.480287	เอา เครื่องใน
-1.480287	เอา เป็น
-1.480287	เอา เย็นตาโฟ
-1.083777	เอา เส้น
-0.6351894	แบบ เผ็ด
-0.6351894	แบบ ไม่
-1.564608	แห้ง </s>
-1.564608	แห้ง จาน
-0.8601648	แห้ง ต้มยำ	-0.05998263
-1.564608	แห้ง ธรรมดา
-1.564608	แห้ง น้ำตก
-1.564608	แห้ง พิเศษ
-1.168097	แห้ง สอง
-1.564608	แห้ง เพิ่ม
-1.564608	แห้ง แบบ
-1.492397	แห้ง ไม่	-0.009283725
-1.564608	แห้ง ไม่ผัก
-0.3341594	โรย กระเทียม
-0.4147698	ใน </s>
-0.8112807	ใน ครับ
-1.589432	ใส่ กระเทียม
-1.589432	ใส่ ตับ
-1.589432	ใส่ ถั่ว
-0.8849884	ใส่ ถั่วงอก	0.3125433
-1.589432	ใส่ ทุก
-1.517221	ใส่ ผัก
-1.589432	ใส่ พริก
-1.589432	ใส่ หมูแดง
-1.192921	ใส่ เครื่อง	0.5501317
-1.192921	ใส่ เครื่องใน	0.5501317
-1.589432	ใส่ เลือด
-1.538279	ใหญ่ ครับ
-1.538279	ใหญ่ ชาม
-1.141768	ใหญ่ ต้ม	-0.06092903
-1.538279	ใหญ่ ต้มยำ
-1.538279	ใหญ่ ธรรมดา
-1.538279	ใหญ่ นะ
-1.141768	ใหญ่ น้ำ	-0.08909914
-1.538279	ใหญ่ พิเศษ
-1.538279	ใหญ่ หมูแดง
-1.538279	ใหญ่ เพิ่ม
-1.141768	ใหญ่ เย็นตาโฟ	-0.04357658
-1.538279	ใหญ่ แห้ง
-1.538279	ใหญ่ ไม่
-0.6351894	ไก่ </s>
-0.6351894	ไก่ ไม่ผัก
-0.3341594	ไก่ฉีก ไม่ผัก
-0.6351894	ไก่ตุ่น </s>
-0.6351894	ไก่ตุ่น ไม่ผัก
-0.3341594	ไข่ ต้ม
-0.6351894	ได้ ก๋วยเตี๋ยว
-0.6351894	ได้ เย็นตาโฟ
-1.732099	ไม่ กระเทียม
-1.027656	ไม่ งอก	-0.02059371
-1.732099	ไม่ ต้อง
-1.027656	ไม่ ผัก	0.007349074
-1.027656	ไม่ เผ็ด	0.03324497
-1.732099	ไม่ เอา
-1.732099	ไม่ โรย
-0.3187588	ไม่ ใส่	0.07719853
-0.02996322	ไม่ผัก </s>
-0.3341594	ไม่เอา ถั่วงอก
-0.3341594	ไม่ใส่ ถั่ว

\3-grams:
-0.5841822	<s> ก๋วยเตี๋ยว เรือ	0.207575
-1.299121	<s> ขอ บะหมี่
-0.5632375	<s> ขอ เส้น	-0.3868491
-0.2831522	นะ ครับ </s>
-0.946938	นึง ครับ </s>
-0.946938	นึง ครับ ไม่
-0.645908	ถั่ว งอก </s>
-0.8219993	ไม่ งอก </s>
-0.645908	เนื้อ ชาม นึง	0.414464
-0.645908	เย็นตาโฟ ชาม นึง	0.414464
-0.645908	หมู ต้ม ยำ
-0.645908	ใหญ่ ต้ม ยำ
-1.123029	บะหมี่ ต้มยำ สุโขทัย
-1.247968	เล็ก ต้มยำ เพิ่ม	0.05941414
-1.247968	เล็ก ต้มยำ ไก่
-0.8219993	แห้ง ต้มยำ </s>
-0.8219993	ใส่ ถั่วงอก </s>
-0.20412	ชาม นึง </s>
-0.7091209	ชาม นึง ครับ	0.0444384
-0.4080909	ที่ นึง </s>
-0.645908	น้อย น้อย </s>
-0.645908	ใหญ่ น้ำ ไม่	0.2037061
-1.148454	<s> บะหมี่ ต้มยำ	0.02637757
-1.687301	<s> บะหมี่ ลูกชิ้น
-1.687301	<s> บะหมี่ หมููแดง	0.09974946
-0.9514177	<s> บะหมี่ หมูแดง	0.04635999
-0.9514177	<s> บะหมี่ แห้ง
-1.687301	<s> บะหมี่ ไก่ตุ่น
-1.043848	เอา บะหมี่ เกี๊ยว
-0.8219993	ไม่ ผัก ไม่	0.09974946
-0.8219993	เพิ่ม ลูกชิ้น </s>
-0.8219993	เส้น หมี่ แห้ง	0.05941414
-1.123029	เล็ก หมู ต้ม	0.09974946
-1.123029	เล็ก หมู น้ำใส
-0.645908	บะหมี่ หมููแดง น้ำตก
-0.946938	บะหมี่ หมูแดง น้ำใส
-0.645908	<s> อยาก ได้
-0.645908	<s> เกาเหลา เนื้อ
-0.645908	ใส่ เครื่อง ใน
-0.645908	ใส่ เครื่องใน </s>
-0.645908	กระเทียม เจียว </s>
-0.8219993	ไม่ เผ็ด </s>
-0.8219993	ต้มยำ เพิ่ม ลูกชิ้น	0.05941414
-0.2831522	เยอะ เยอะ </s>
-0.645908	เล็ก เย็นตาโฟ ชาม	0.09974946
-0.645908	ใหญ่ เย็นตาโฟ ไม่	0.09974946
-0.4080909	ก๋วยเตี๋ยว เรือ เส้น
-0.3871462	<s> เล็ก น้ำ
-1.123029	<s> เล็ก แห้ง
-0.544068	เส้น เล็ก ต้มยำ	0.04636
-1.792036	เส้น เล็ก น้ำ
-1.792036	เส้น เล็ก ยำ
-0.6690068	เส้น เล็ก หมู	0.06328303
-1.792036	เส้น เล็ก เย็นตาโฟ	0.09974946
-1.297393	<s> เส้น หมี่	0.06328303
-0.148939	<s> เส้น เล็ก	-0.06323755
-0.7132105	<s> เส้น ใหญ่
-0.645908	ก๋วยเตี๋ยว เส้น ใหญ่	0.0009401916
-0.4080909	ขอ เส้น เล็ก
-0.8219993	เย็นตาโฟ เส้น ใหญ่
-1.344878	<s> เอา ก๋วยเตี๋ยว
-0.30103	<s> เอา บะหมี่	0.0365825
-1.043848	บะหมี่ แห้ง ไม่
-0.8219993	หมี่ แห้ง ต้มยำ
-0.946938	เล็ก แห้ง สอง
-0.8219993	เครื่อง ใน </s>
-1.424059	ไม่ ใส่ ถั่วงอก	0.05941414
-1.424059	ไม่ ใส่ ผัก
-1.424059	ไม่ ใส่ เครื่อง	0.09974946
-1.424059	ไม่ ใส่ เครื่องใน	0.09974946
-1.548998	เส้น ใหญ่ ต้ม	0.09974946
-1.548998	เส้น ใหญ่ น้ำ	0.09974946
-1.548998	เส้น ใหญ่ เย็นตาโฟ	0.09974946
-0.4080909	น้ำ ไม่ ใส่	0.009037935
-0.645908	ผัก ไม่ งอก
-0.645908	ยำ ไม่ ใส่
-0.645908	เย็นตาโฟ ไม่ ใส่
-0.946938	แห้ง ไม่ ผัก	0.05941414
-0.645908	ต้มยำ ไม่ผัก </s>
-0.645908	น้ำตก ไม่ผัก </s>
-0.645908	น้ำใส ไม่ผัก </s>

\4-grams:
-1.758737	ชาม นึง ครับ ไม่
-1.582646	เล็ก เย็นตาโฟ ชาม นึง
-1.582646	เล็ก หมู ต้ม ยำ
-1.582646	เส้น ใหญ่ ต้ม ยำ
-1.758737	<s> บะหมี่ ต้มยำ สุโขทัย
-2.184706	เส้น เล็ก ต้มยำ เพิ่ม
-2.184706	เส้น เล็ก ต้มยำ ไก่
-1.582646	ไม่ ใส่ ถั่วงอก </s>
-1.582646	เนื้อ ชาม นึง </s>
-1.582646	เย็นตาโฟ ชาม นึง </s>
-1.582646	เส้น ใหญ่ น้ำ ไม่
-1.980586	<s> เอา บะหมี่ เกี๊ยว
-1.582646	แห้ง ไม่ ผัก ไม่
-1.582646	ต้มยำ เพิ่ม ลูกชิ้น </s>
-1.758737	<s> เส้น หมี่ แห้ง
-2.059767	เส้น เล็ก หมู ต้ม
-2.059767	เส้น เล็ก หมู น้ำใส
-1.582646	<s> บะหมี่ หมููแดง น้ำตก
-1.883676	<s> บะหมี่ หมูแดง น้ำใส
-1.582646	ไม่ ใส่ เครื่อง ใน
-1.582646	ไม่ ใส่ เครื่องใน </s>
-1.582646	เล็ก ต้มยำ เพิ่ม ลูกชิ้น
-1.582646	เส้น เล็ก เย็นตาโฟ ชาม
-1.582646	เส้น ใหญ่ เย็นตาโฟ ไม่
-1.758737	<s> ก๋วยเตี๋ยว เรือ เส้น
-0.4973246	<s> เส้น เล็ก ต้มยำ
-2.624038	<s> เส้น เล็ก ยำ
-0.5642715	<s> เส้น เล็ก หมู
-2.624038	<s> เส้น เล็ก เย็นตาโฟ
-0.1249387	<s> ขอ เส้น เล็ก
-1.582646	เส้น หมี่ แห้ง ต้มยำ
-1.758737	น้ำ ไม่ ใส่ ถั่วงอก
-1.582646	ก๋วยเตี๋ยว เส้น ใหญ่ ต้ม
-1.582646	ใหญ่ น้ำ ไม่ ใส่
-1.582646	ไม่ ผัก ไม่ งอก
-1.582646	ใหญ่ เย็นตาโฟ ไม่ ใส่

\end\
