
\data\
ngram 1=92

\1-grams:
-0.8149963	</s>
-99	<s>
-2.320146	กระเทียม
-2.496238	กลับบ้าน
-1.797268	ก๋วยเตี๋ยว
-2.797267	ก๋วยเตี๋ยวหมู
-1.797268	ขอ
-1.518514	ครับ
-2.098298	งอก
-2.496238	จาน
-1.843025	ชาม
-2.797267	ตับ
-2.797267	ตุ๋น
-2.098298	ต้ม
-1.454845	ต้มยำ
-2.797267	ต้อง
-2.496238	ถั่ว
-2.195208	ถั่วงอก
-2.098298	ที่
-2.797267	ทุก
-2.496238	ธรรมดา
-2.320146	นะ
-2.797267	นี้
-1.683324	นึง
-2.195208	น้อย
-1.755875	น้ำ
-2.098298	น้ำตก
-2.195208	น้ำใส
-1.292118	บะหมี่
-2.797267	บาท
-2.797267	ปกติ
-2.797267	ผม
-1.95217	ผัก
-2.797267	พริก
-1.797268	พิเศษ
-2.797267	พี่
-2.496238	มาม่า
-2.019116	ยำ
-2.019116	ลูกชิ้น
-2.797267	วัน
-2.496238	วุ้นเส้น
-2.320146	สอง
-2.496238	สั่ง
-2.797267	สาม
-2.797267	สิบ
-2.320146	สี่
-2.496238	สุโขทัย
-2.496238	หนึ่ง
-2.195208	หมี่
-1.95217	หมู
-2.797267	หมูสับ
-2.797267	หมูู
-2.496238	หมููแดง
-1.894178	หมูแดง
-2.797267	ห้า
-2.496238	อยาก
-2.797267	อย่าง
-2.797267	อะ
-2.320146	เกาเหลา
-2.195208	เกี๊ยว
-2.320146	เครื่อง
-2.320146	เครื่องใน
-2.496238	เจียว
-2.797267	เด็ก
-1.894178	เนื้อ
-2.797267	เปื่อย
-2.797267	เป็ด
-2.320146	เป็น
-1.755875	เผ็ด
-1.95217	เพิ่ม
-2.019116	เยอะ
-1.894178	เย็นตาโฟ
-2.195208	เรือ
-2.797267	เลือด
-1.253199	เล็ก
-1.089697	เส้น
-1.651139	เอา
-2.496238	แบบ
-1.566819	แห้ง
-2.797267	โรย
-2.320146	ใน
-1.541995	ใส่
-1.593148	ใหญ่
-2.496238	ไก่
-2.797267	ไก่ฉีก
-2.496238	ไก่ตุ่น
-2.797267	ไข่
-2.496238	ได้
-1.399328	ไม่
-1.651139	ไม่ผัก
-2.797267	ไม่เอา
-2.797267	ไม่ใส่

\end\
