
\data\
ngram 1=91
ngram 2=278
ngram 3=64
ngram 4=32
ngram 5=18

\1-grams:
-0.9314587	</s>
-99	<s>	-0.8987921
-1.647251	กรอบ
-2.037057	กระเทียม	-0.2434323
-2.252976	กลับบ้าน	-0.06734107
-1.647251	กัน
-1.647251	ก็
-1.893495	ก๋วยเตี๋ยว	-0.2655407
-2.252976	ขอ	-0.07748858
-1.312021	ครับ	-0.5983338
-2.252976	งอก	-0.2044967
-2.252976	จาน	-0.09648839
-2.701609	ฉีก	-0.08735985
-1.627629	ชาม	-0.6405565
-2.701609	ตับ	-0.06831999
-2.252976	ตุ๋น	-0.02342565
-2.701609	ต้ม	-0.06831999
-1.511945	ต้มยำ	-0.1906604
-2.701609	ต้อง	-0.1120472
-2.701609	ถั่ว	-0.1199741
-2.252976	ถั่วงอก	-0.2380793
-1.647251	ทอด
-1.785782	ที่	-0.4944284
-2.701609	ทุก	-0.1215422
-2.252976	ธรรมดา	-0.0795807
-2.037057	นะ	-0.5778221
-2.701609	นี้	-0.1152354
-2.037057	นึง	-0.4415926
-2.037057	น้อย	-0.239871
-1.893495	น้ำ	-0.1301884
-1.893495	น้ำตก	-0.2333393
-2.252976	น้ำใส	-0.3294355
-1.785782	บะหมี่	-0.2403925
-2.701609	บาท	-0.06831999
-2.701609	ปกติ	-0.06831999
-2.701609	ผม	-0.1152354
-2.252976	ผัก	-0.06767693
-2.701609	พริก	-0.1168207
-1.511945	พิเศษ	-0.3358704
-2.701609	พี่	-0.06831999
-2.252976	มาม่า	-0.1014349
-2.701609	ยำ	-0.07262892
-1.647251	ละ
-2.037057	ลูกชิ้น	0.0157781
-2.701609	วัน	-0.1215422
-2.252976	วุ้นเส้น	-0.09979234
-2.252976	สอง	-0.03120396
-2.701609	สั่ง	-0.109556
-2.701609	สาม	-0.06831999
-2.701609	สิบ	-0.1215422
-2.037057	สี่	-0.1150681
-2.701609	สุโขทัย	-0.02840549
-2.252976	หนึ่ง	-0.1127624
-2.252976	หมี่	-0.2742347
-2.252976	หมู	-0.07147481
-2.701609	หมูสับ	-0.1120472
-1.785782	หมูแดง	-0.08491458
-2.701609	ห้า	-0.1215422
-2.701609	อยาก	-0.1215422
-2.701609	อย่าง	-0.06831999
-2.701609	อะ	-0.1007009
-2.252976	เกาเหลา	-0.1079439
-2.252976	เกี๊ยว	-0.09465168
-2.252976	เครื่อง	-0.4225722
-2.252976	เครื่องใน	-0.36935
-2.701609	เจียว	-0.06831999
-2.701609	เด็ก	-0.1055999
-1.627629	เนื้อ	-0.07705851
-2.701609	เปื่อย	-0.08735985
-2.701609	เป็ด	-0.1088355
-2.037057	เป็น	-0.2888536
-1.785782	เผ็ด	-0.1699865
-1.785782	เพิ่ม	-0.1661844
-1.893495	เยอะ	-0.363018
-1.699546	เย็นตาโฟ	-0.2306455
-2.701609	เรือ	-0.09482693
-2.701609	เลือด	-0.06831999
-2.037057	เล็ก	-0.04564393
-1.420684	เส้น	-0.4542704
-1.785782	เอา	-0.1007441
-2.252976	แบบ	-0.0795807
-1.647251	และ
-1.627629	แห้ง	-0.108861
-2.701609	โรย	-0.1184002
-2.701609	ใน	-0.0436525
-1.627629	ใส่	-0.2012673
-2.701609	ใหญ่	0.04204348
-2.252976	ไก่	-0.02430255
-2.701609	ไข่	-0.1215422
-2.701609	ได้	-0.1079439
-1.110544	ไม่	-0.659918

\2-grams:
-1.186696	<s> ก๋วยเตี๋ยว	-0.09577627
-1.066048	<s> ขอ	-0.2473526
-0.6550019	<s> บะหมี่	-0.2802386
-2.592018	<s> ผม
-2.592018	<s> มาม่า
-2.592018	<s> วัน
-2.592018	<s> วุ้นเส้น
-1.886888	<s> สั่ง
-2.592018	<s> หมี่
-1.886888	<s> อยาก	-0.2556059
-1.886888	<s> เกาเหลา	-0.3211074
-1.262475	<s> เล็ก	-0.4390413
-0.5016088	<s> เส้น	-0.6327435
-1.016335	<s> เอา	-0.308331
-1.086868	กระเทียม </s>
-0.3817378	กระเทียม เจียว	-0.2556059
-0.9107768	กลับบ้าน </s>
-0.9107768	กลับบ้าน สาม
-0.858859	ก๋วยเตี๋ยว หมู	-0.3561367
-1.563989	ก๋วยเตี๋ยว เด็ก
-1.563989	ก๋วยเตี๋ยว เนื้อ
-1.563989	ก๋วยเตี๋ยว เป็ด
-0.858859	ก๋วยเตี๋ยว เรือ	-0.1559741
-0.858859	ก๋วยเตี๋ยว เส้น	-0.1543254
-1.387898	ขอ ก๋วยเตี๋ยว
-1.387898	ขอ บะหมี่
-1.387898	ขอ เกาเหลา
-1.387898	ขอ เป็น
-1.387898	ขอ เผ็ด
-1.387898	ขอ เส้น	0
-0.1251081	ครับ </s>
-1.785838	ครับ ขอ
-1.785838	ครับ พี่
-1.785838	ครับ ไม่
-0.3817378	งอก </s>
-1.086868	งอก ไม่
-0.9107768	จาน ครับ
-0.9107768	จาน นึง
-0.6097468	ฉีก ไม่
-1.454845	ชาม ครับ
-0.1253017	ชาม นึง	-0.03375703
-0.6097468	ตับ </s>
-1.086868	ตุ๋น </s>
-1.086868	ตุ๋น สี่
-1.086868	ตุ๋น ไม่
-0.6097468	ต้ม </s>
-0.7897331	ต้มยำ </s>
-1.910777	ต้มยำ ครับ
-1.910777	ต้มยำ สุโขทัย
-1.910777	ต้มยำ หนึ่ง
-0.9496949	ต้มยำ เผ็ด
-1.205647	ต้มยำ เพิ่ม	0
-1.910777	ต้มยำ เส้น
-1.910777	ต้มยำ แบบ
-1.910777	ต้มยำ ใส่
-1.910777	ต้มยำ ไก่
-0.7897331	ต้มยำ ไม่	-0.06456669
-0.6097468	ต้อง ใส่
-0.6097468	ถั่ว งอก	0
-0.3817378	ถั่วงอก </s>
-1.086868	ถั่วงอก เยอะ
-1.308717	ที่ ครับ
-0.1876731	ที่ นึง	-0.07887244
-0.6097468	ทุก อย่าง
-0.9107768	ธรรมดา ที่
-0.9107768	ธรรมดา ไม่
-0.1257861	นะ ครับ	0.04744881
-0.6097468	นี้ เอา
-0.3476349	นึง </s>
-0.6035865	นึง ครับ	0.3886735
-1.086868	น้อย </s>
-0.3817378	น้อย น้อย	-0.3409158
-1.563989	น้ำ ครับ
-1.563989	น้ำ ต้มยำ
-1.563989	น้ำ พิเศษ
-1.563989	น้ำ สอง
-1.563989	น้ำ สี่
-1.563989	น้ำ หนึ่ง
-0.6029074	น้ำ ไม่	-0.009539992
-0.6035865	น้ำตก </s>
-1.308717	น้ำตก พิเศษ
-0.6035865	น้ำตก ไม่	-0.1965545
-0.5066765	น้ำใส </s>
-0.5066765	น้ำใส ไม่	-0.1965545
-0.7439756	บะหมี่ ต้มยำ	0
-1.159889	บะหมี่ น้ำ
-1.159889	บะหมี่ พิเศษ
-1.865019	บะหมี่ ลูกชิ้น
-1.865019	บะหมี่ หมูแดง	0
-1.159889	บะหมี่ เกี๊ยว
-1.865019	บะหมี่ เนื้อ
-1.865019	บะหมี่ เพิ่ม
-1.159889	บะหมี่ แห้ง	-0.0003720149
-1.865019	บะหมี่ ใส่
-1.865019	บะหมี่ ไก่	0
-0.6097468	บาท </s>
-0.6097468	ปกติ </s>
-0.6097468	ผม เอา
-0.6827677	ผัก </s>
-1.387898	ผัก ครับ
-1.387898	ผัก นะ
-1.387898	ผัก เยอะ
-1.387898	ผัก ไม่	0
-0.6097468	พริก เยอะ
-0.2802037	พิเศษ </s>
-1.609747	พิเศษ ชาม
-1.609747	พิเศษ ที่
-1.609747	พิเศษ สี่
-1.609747	พิเศษ หมูแดง
-0.6097468	พี่ </s>
-0.9107768	มาม่า ชาม
-0.9107768	มาม่า แห้ง
-0.9107768	ยำ พิเศษ
-0.9107768	ยำ ไม่
-1.308717	ลูกชิ้น </s>
-1.308717	ลูกชิ้น พิเศษ
-1.308717	ลูกชิ้น เนื้อ
-1.308717	ลูกชิ้น ใส่
-1.308717	ลูกชิ้น ไม่
-0.6097468	วัน นี้
-0.9107768	วุ้นเส้น ต้มยำ
-0.9107768	วุ้นเส้น เย็นตาโฟ
-1.086868	สอง </s>
-1.086868	สอง ครับ
-1.086868	สอง ชาม
-0.9107768	สั่ง เป็น
-0.9107768	สั่ง เย็นตาโฟ
-0.6097468	สาม </s>
-0.6097468	สิบ ห้า
-1.086868	สี่ กลับบ้าน
-1.086868	สี่ สิบ
-1.086868	สี่ เล็ก
-0.9107768	สุโขทัย </s>
-0.9107768	สุโขทัย ไม่
-0.9107768	หนึ่ง จาน
-0.9107768	หนึ่ง ที่
-1.086868	หมี่ ต้มยำ
-0.3817378	หมี่ แห้ง	0
-1.308717	หมู ต้มยำ
-1.308717	หมู น้ำตก
-1.308717	หมู น้ำใส
-1.308717	หมู เส้น	0
-1.308717	หมู แห้ง
-0.6097468	หมูสับ ใส่
-1.512837	หมูแดง ชาม
-1.512837	หมูแดง น้ำตก
-1.512837	หมูแดง น้ำใส
-1.512837	หมูแดง พิเศษ
-1.512837	หมูแดง แห้ง
-1.512837	หมูแดง ใส่
-0.8077065	หมูแดง ไม่
-0.6097468	ห้า บาท
-0.6097468	อยาก ได้
-0.6097468	อย่าง </s>
-0.6097468	อะ ครับ
-0.9107768	เกาเหลา ลูกชิ้น
-0.9107768	เกาเหลา เนื้อ
-1.211807	เกี๊ยว ที่
-1.211807	เกี๊ยว น้ำ
-1.211807	เกี๊ยว หมูแดง
-1.211807	เกี๊ยว เพิ่ม
-0.2056465	เครื่อง ใน	-0.1559741
-0.2056465	เครื่องใน </s>
-0.6097468	เจียว </s>
-0.6097468	เด็ก เส้น
-1.512837	เนื้อ ครับ
-0.8077065	เนื้อ ชาม	0.2229606
-1.512837	เนื้อ ตุ๋น
-1.512837	เนื้อ เปื่อย
-1.512837	เนื้อ เส้น
-1.512837	เนื้อ เอา
-1.512837	เนื้อ ไม่
-0.6097468	เปื่อย ไม่
-0.6097468	เป็ด พิเศษ
-0.3817378	เป็น บะหมี่
-1.086868	เป็น เกี๊ยว
-0.9046165	เผ็ด </s>
-1.609747	เผ็ด ครับ
-1.609747	เผ็ด ที่
-1.609747	เผ็ด นะ
-1.609747	เผ็ด น้อย
-1.609747	เผ็ด ปกติ
-0.6486649	เผ็ด เผ็ด
-0.6827677	เพิ่ม ลูกชิ้น	0
-1.387898	เพิ่ม เครื่อง
-1.387898	เพิ่ม เนื้อ
-1.387898	เพิ่ม เส้น
-1.387898	เพิ่ม ไข่
-1.211807	เยอะ </s>
-0.2507249	เยอะ เยอะ	-0.5265825
-1.387898	เย็นตาโฟ กลับบ้าน
-1.387898	เย็นตาโฟ ชาม	0
-0.4268161	เย็นตาโฟ เส้น	0.01080798
-1.387898	เย็นตาโฟ ไม่	0
-0.9107768	เรือ เนื้อ
-0.9107768	เรือ เส้น
-0.6097468	เลือด </s>
-1.785838	เล็ก </s>
-1.785838	เล็ก ต้มยำ	0
-1.080708	เล็ก น้ำ	0
-1.785838	เล็ก น้ำตก
-1.785838	เล็ก ยำ
-1.785838	เล็ก หมู	0
-1.785838	เล็ก หมูสับ
-1.785838	เล็ก อะ
-1.785838	เล็ก เนื้อ
-1.785838	เล็ก เย็นตาโฟ	0
-0.8247561	เล็ก แห้ง	-0.1414276
-1.785838	เล็ก ไม่
-1.865019	เส้น </s>
-1.865019	เส้น น้อย
-1.865019	เส้น บะหมี่
-1.865019	เส้น มาม่า
-1.865019	เส้น หมี่	0
-0.627332	เส้น เล็ก	-0.03339104
-0.3951973	เส้น ใหญ่	-0.08739337
-1.609747	เอา ก๋วยเตี๋ยว
-1.609747	เอา ต้มยำ
-1.609747	เอา ถั่วงอก
-1.609747	เอา บะหมี่	0
-1.609747	เอา วุ้นเส้น
-1.609747	เอา เครื่องใน
-1.609747	เอา เป็น
-1.609747	เอา เย็นตาโฟ
-0.9046165	เอา เส้น
-0.9107768	แบบ เผ็ด
-0.9107768	แบบ ไม่
-1.755875	แห้ง </s>
-1.755875	แห้ง จาน
-1.050745	แห้ง ต้มยำ	-0.1359774
-1.755875	แห้ง ธรรมดา
-1.755875	แห้ง น้ำตก
-1.755875	แห้ง พิเศษ
-1.755875	แห้ง สอง
-1.755875	แห้ง เพิ่ม
-1.755875	แห้ง แบบ
-0.6348312	แห้ง ไม่	-0.06456669
-0.6097468	โรย กระเทียม
-0.9107768	ใน </s>
-0.9107768	ใน ครับ
-1.755875	ใส่ กระเทียม
-1.755875	ใส่ ตับ
-1.755875	ใส่ ถั่ว	0
-1.050745	ใส่ ถั่วงอก	0
-1.755875	ใส่ ทุก
-0.794793	ใส่ ผัก
-1.755875	ใส่ พริก
-1.755875	ใส่ หมูแดง
-1.755875	ใส่ เครื่อง	0
-1.755875	ใส่ เครื่องใน	0
-1.755875	ใส่ เลือด
-1.688928	ใหญ่ ครับ
-1.688928	ใหญ่ ชาม
-1.688928	ใหญ่ ต้มยำ	0
-1.688928	ใหญ่ ธรรมดา
-1.688928	ใหญ่ นะ
-1.688928	ใหญ่ น้ำ	0
-1.688928	ใหญ่ พิเศษ
-1.688928	ใหญ่ หมูแดง
-1.688928	ใหญ่ เพิ่ม
-1.688928	ใหญ่ เย็นตาโฟ	0
-1.688928	ใหญ่ แห้ง
-1.688928	ใหญ่ ไม่
-1.211807	ไก่ </s>
-1.211807	ไก่ ฉีก
-1.211807	ไก่ ตุ๋น
-1.211807	ไก่ ไม่
-0.6097468	ไข่ ต้ม
-0.9107768	ได้ ก๋วยเตี๋ยว
-0.9107768	ได้ เย็นตาโฟ
-2.086868	ไม่ กระเทียม
-1.381738	ไม่ งอก	0.02011719
-2.086868	ไม่ ต้อง
-0.4665833	ไม่ ผัก	-0.7138821
-1.125786	ไม่ เผ็ด	-0.1551046
-1.381738	ไม่ เอา
-2.086868	ไม่ โรย
-0.5608982	ไม่ ใส่	-0.1088357

\3-grams:
-0.5101547	<s> ก๋วยเตี๋ยว เรือ	0.0107872
-0.8888733	<s> ขอ บะหมี่
-0.4542207	<s> ขอ เส้น	-0.2101991
-0.1421779	นะ ครับ </s>
-0.411752	นึง ครับ </s>
-0.411752	ไม่ งอก </s>
-0.2356607	เนื้อ ชาม นึง	-0.1605915
-0.1253017	เย็นตาโฟ ชาม นึง	0
-1.205647	เล็ก ต้มยำ เพิ่ม	0
-0.411752	แห้ง ต้มยำ </s>
-0.7897331	ใหญ่ ต้มยำ ไม่	0
-0.6097468	ใส่ ถั่ว งอก	0
-0.4432079	ชาม นึง </s>
-0.4432079	ชาม นึง ครับ	-0.1843306
-0.2671166	ที่ นึง </s>
-0.2356607	น้อย น้อย </s>
-0.6029074	ใหญ่ น้ำ ไม่	0
-1.007479	<s> บะหมี่ ต้มยำ	-0.1967252
-1.277053	<s> บะหมี่ ลูกชิ้น
-0.629568	<s> บะหมี่ หมูแดง	-0.1745706
-0.8424008	<s> บะหมี่ แห้ง
-1.007479	<s> บะหมี่ ไก่	-0.1745706
-0.0721834	ไม่ ผัก </s>
-2.10178	ไม่ ผัก ไม่	0
-0.3817378	เส้น หมี่ แห้ง	0
-0.2356607	ก๋วยเตี๋ยว หมู เส้น	-0.1310003
-0.2356607	<s> อยาก ได้
-0.2356607	<s> เกาเหลา เนื้อ
-0.2356607	กระเทียม เจียว </s>
-0.411752	ไม่ เผ็ด </s>
-0.6827677	ต้มยำ เพิ่ม ลูกชิ้น	0
-0.1421779	เยอะ เยอะ </s>
-1.387898	เล็ก เย็นตาโฟ ชาม	0
-1.387898	ใหญ่ เย็นตาโฟ ไม่	0
-0.411752	ก๋วยเตี๋ยว เรือ เส้น
-0.2781294	<s> เล็ก น้ำ
-0.712782	<s> เล็ก แห้ง
-1.080759	เส้น เล็ก ต้มยำ	0
-1.080759	เส้น เล็ก น้ำ	-0.2300306
-1.819229	เส้น เล็ก หมู	0
-1.819229	เส้น เล็ก เย็นตาโฟ	0
-1.156418	<s> เส้น หมี่	0.0309044
-0.165796	<s> เส้น เล็ก	-0.4055912
-0.778507	<s> เส้น ใหญ่
-0.2356607	ก๋วยเตี๋ยว เส้น ใหญ่	-0.3196555
-0.411752	เย็นตาโฟ เส้น ใหญ่
-0.9346308	<s> เอา ก๋วยเตี๋ยว
-0.3806524	<s> เอา บะหมี่	-0.0785717
-0.6336008	บะหมี่ แห้ง ไม่
-0.5366907	เล็ก แห้ง สอง
-0.411752	เครื่อง ใน </s>
-1.013812	ไม่ ใส่ ถั่ว	-0.2322808
-1.15958	ไม่ ใส่ ถั่วงอก	0
-1.013812	ไม่ ใส่ ผัก
-1.013812	ไม่ ใส่ เครื่อง	0.06874922
-1.013812	ไม่ ใส่ เครื่องใน	0.06874922
-1.110722	เส้น ใหญ่ ต้มยำ	-0.1251902
-1.110722	เส้น ใหญ่ น้ำ	-0.2300306
-1.110722	เส้น ใหญ่ เย็นตาโฟ	-0.3365349
-0.3640266	ต้มยำ ไม่ ผัก	0.2841604
-0.5366907	น้ำ ไม่ ใส่	-0.1709248
-0.2356607	น้ำตก ไม่ ผัก	0.4602517
-0.2356607	น้ำใส ไม่ ผัก	0.4602517
-0.3640266	แห้ง ไม่ ผัก	-0.1986424

\4-grams:
-0.4293704	ชาม นึง ครับ ไม่
-0.1253017	เล็ก เย็นตาโฟ ชาม นึง	-0.153372
-0.4293704	<s> บะหมี่ ต้มยำ สุโขทัย
-1.205647	เส้น เล็ก ต้มยำ เพิ่ม	-0.2464108
-0.4293704	เส้น ใหญ่ ต้มยำ ไม่	-0.2300584
-0.2532791	ไม่ ใส่ ถั่ว งอก	-0.1144716
-0.2532791	เนื้อ ชาม นึง </s>
-0.2532791	เส้น เล็ก น้ำ ไม่
-0.2532791	เส้น ใหญ่ น้ำ ไม่	-0.1983532
-0.6512191	<s> เอา บะหมี่ เกี๊ยว
-0.1515599	ต้มยำ ไม่ ผัก </s>
-0.2532791	น้ำตก ไม่ ผัก </s>
-0.2532791	น้ำใส ไม่ ผัก </s>
-0.4293704	แห้ง ไม่ ผัก ไม่	-0.3290505
-0.4293704	<s> เส้น หมี่ แห้ง	-0.3069992
-0.7304004	<s> บะหมี่ หมูแดง น้ำตก
-0.7304004	<s> บะหมี่ หมูแดง น้ำใส
-0.2532791	ไม่ ใส่ เครื่อง ใน
-0.2532791	ไม่ ใส่ เครื่องใน </s>
-0.6827677	เล็ก ต้มยำ เพิ่ม ลูกชิ้น	-0.3255921
-1.387898	เส้น เล็ก เย็นตาโฟ ชาม	0.2535052
-0.2532791	เส้น ใหญ่ เย็นตาโฟ ไม่	-0.2078932
-0.4293704	<s> ก๋วยเตี๋ยว เรือ เส้น
-0.5559394	<s> เส้น เล็ก ต้มยำ	-0.160007
-1.294672	<s> เส้น เล็ก ยำ
-0.5559394	<s> เส้น เล็ก หมู	-0.208154
-1.294672	<s> เส้น เล็ก เย็นตาโฟ	-0.3293154
-0.2764986	<s> ขอ เส้น เล็ก
-0.2532791	ก๋วยเตี๋ยว หมู เส้น ใหญ่
-0.4293704	น้ำ ไม่ ใส่ ถั่วงอก	-0.1144716
-0.2532791	ก๋วยเตี๋ยว เส้น ใหญ่ ต้มยำ
-0.4293704	<s> บะหมี่ ไก่ ตุ๋น

\5-grams:
-0.2590816	ไม่ ใส่ ถั่ว งอก </s>
-0.2590816	เส้น เล็ก เย็นตาโฟ ชาม นึง
-0.8031496	<s> เส้น เล็ก ต้มยำ เพิ่ม
-0.8031496	<s> เส้น เล็ก ต้มยำ ไก่
-0.8031496	<s> เส้น เล็ก ต้มยำ ไม่
-0.2590816	น้ำ ไม่ ใส่ ถั่วงอก </s>
-0.2590816	เล็ก เย็นตาโฟ ชาม นึง </s>
-0.2590816	เล็ก ต้มยำ เพิ่ม ลูกชิ้น </s>
-0.8031496	<s> เส้น เล็ก หมู ต้มยำ
-0.8031496	<s> เส้น เล็ก หมู น้ำใส
-0.8031496	<s> เส้น เล็ก หมู แห้ง
-0.2590816	เส้น เล็ก ต้มยำ เพิ่ม ลูกชิ้น
-0.2590816	<s> เส้น เล็ก เย็นตาโฟ ชาม
-0.2590816	<s> เส้น หมี่ แห้ง ต้มยำ
-0.2590816	เส้น ใหญ่ ต้มยำ ไม่ ใส่
-0.2590816	เส้น ใหญ่ น้ำ ไม่ ใส่
-0.2590816	แห้ง ไม่ ผัก ไม่ งอก
-0.2590816	เส้น ใหญ่ เย็นตาโฟ ไม่ ใส่

\end\
