
\data\
ngram 1=85
ngram 2=278
ngram 3=88

\1-grams:
-0.8259397	</s>
-99	<s>	-0.9134725
-2.33109	กระเทียม	-0.3260507
-2.507181	กลับบ้าน	-0.2468251
-1.766818	ก๋วยเตี๋ยว	-0.462809
-1.808211	ขอ	-0.4242125
-1.529457	ครับ	-0.9395234
-2.109241	งอก	-0.615824
-2.507181	จาน	-0.2956737
-2.808211	ฉีก	-0.289229
-1.853969	ชาม	-1.249916
-2.808211	ตับ	-0.2476198
-2.33109	ตุ๋น	-0.2112005
-2.808211	ต้ม	-0.2476198
-1.393238	ต้มยำ	-0.1279357
-2.808211	ต้อง	-0.3048171
-2.507181	ถั่ว	-0.4407937
-2.206151	ถั่วงอก	-0.149886
-2.109241	ที่	-0.6977147
-2.808211	ทุก	-0.3171676
-2.507181	ธรรมดา	-0.2856068
-2.33109	นะ	-0.1848418
-2.808211	นี้	-0.3075922
-1.694268	นึง	-1.354451
-2.206151	น้อย	-0.3707728
-1.766818	น้ำ	-0.5044627
-2.109241	น้ำตก	-0.3030751
-2.206151	น้ำใส	-0.3401235
-1.303061	บะหมี่	-0.2231449
-2.808211	บาท	-0.2476198
-2.808211	ปกติ	-0.2476198
-2.808211	ผม	-0.3075922
-1.485992	ผัก	-0.8585339
-2.808211	พริก	-0.313772
-1.808211	พิเศษ	-0.1323985
-2.808211	พี่	-0.2476198
-2.507181	มาม่า	-0.2999177
-2.507181	ยำ	-0.2819542
-2.03006	ลูกชิ้น	-0.2189758
-2.808211	วัน	-0.3171676
-2.507181	วุ้นเส้น	-0.2942498
-2.33109	สอง	-0.2247999
-2.507181	สั่ง	-0.3103496
-2.808211	สาม	-0.2476198
-2.808211	สิบ	-0.3171676
-2.33109	สี่	-0.2913879
-2.507181	สุโขทัย	-0.213783
-2.507181	หนึ่ง	-0.3130896
-2.206151	หมี่	-0.19484
-1.853969	หมู	-0.3523719
-2.808211	หมูสับ	-0.3048171
-1.808211	หมูแดง	-0.3117374
-2.808211	ห้า	-0.3171676
-2.507181	อยาก	-0.442831
-2.808211	อย่าง	-0.2476198
-2.808211	อะ	-0.3048171
-2.33109	เกาเหลา	-0.3883049
-2.206151	เกี๊ยว	-0.2949623
-2.33109	เครื่อง	-0.1958372
-2.33109	เครื่องใน	-0.1276445
-2.507181	เจียว	-0.3739603
-2.808211	เด็ก	-0.2819542
-1.905121	เนื้อ	-0.2403718
-2.808211	เปื่อย	-0.289229
-2.808211	เป็ด	-0.3110362
-2.33109	เป็น	-0.3728429
-1.766818	เผ็ด	-0.1425601
-1.963113	เพิ่ม	-0.2130271
-2.03006	เยอะ	-0.1228545
-1.905121	เย็นตาโฟ	-0.245029
-2.206151	เรือ	-0.1831015
-2.808211	เลือด	-0.2476198
-1.264143	เล็ก	-0.4108558
-1.100641	เส้น	-0.9736431
-1.63212	เอา	-0.4335159
-2.507181	แบบ	-0.28122
-1.577762	แห้ง	-0.2971684
-2.808211	โรย	-0.3158125
-2.33109	ใน	-0.3122882
-1.529457	ใส่	-0.3733213
-1.604091	ใหญ่	-0.1923725
-2.109241	ไก่	-0.2565605
-2.808211	ไข่	-0.3171676
-2.507181	ได้	-0.3048171
-1.195427	ไม่	-0.7824286

\2-grams:
-1.137173	<s> ก๋วยเตี๋ยว	0.1154618
-1.028029	<s> ขอ	0.03431174
-0.6398485	<s> บะหมี่	-0.03816491
-2.267114	<s> ผม
-2.267114	<s> มาม่า
-2.267114	<s> วัน
-2.267114	<s> วุ้นเส้น
-1.874788	<s> สั่ง
-2.267114	<s> หมี่
-1.874788	<s> อยาก	0.2801154
-1.874788	<s> เกาเหลา	0.07772785
-1.689567	<s> เล็ก	-0.3909989
-0.4909095	<s> เส้น	0.1240036
-0.9822713	<s> เอา	-0.1238281
-0.7619645	กระเทียม </s>
-0.3696379	กระเทียม เจียว	0.2801154
-0.5858732	กลับบ้าน </s>
-0.5858732	กลับบ้าน สาม
-0.9339094	ก๋วยเตี๋ยว หมู	-0.09739795
-1.326236	ก๋วยเตี๋ยว เด็ก
-1.326236	ก๋วยเตี๋ยว เนื้อ
-1.326236	ก๋วยเตี๋ยว เป็ด
-0.4938605	ก๋วยเตี๋ยว เรือ	0.04283266
-0.9339094	ก๋วยเตี๋ยว เส้น	-0.0005663782
-1.284843	ขอ ก๋วยเตี๋ยว
-0.8925167	ขอ บะหมี่
-1.284843	ขอ เกาเหลา
-1.284843	ขอ เป็น
-1.284843	ขอ เผ็ด
-0.4524679	ขอ เส้น	0.2493403
-0.1026623	ครับ </s>
-1.563597	ครับ ขอ
-1.563597	ครับ พี่
-1.17127	ครับ ไม่
-0.1514379	งอก </s>
-0.9838132	งอก ไม่
-0.5858732	จาน ครับ
-0.5858732	จาน นึง
-0.2848432	ฉีก ไม่
-1.239086	ชาม ครับ
-0.05115252	ชาม นึง	0.8799542
-0.2848432	ตับ </s>
-0.7619645	ตุ๋น </s>
-0.7619645	ตุ๋น สี่
-0.7619645	ตุ๋น ไม่
-0.2848432	ต้ม </s>
-0.7160034	ต้มยำ </s>
-1.699817	ต้มยำ ครับ
-1.30749	ต้มยำ สุโขทัย
-1.699817	ต้มยำ หนึ่ง
-1.374445	ต้มยำ เผ็ด
-1.374445	ต้มยำ เพิ่ม	-0.02814849
-1.699817	ต้มยำ เส้น
-1.699817	ต้มยำ แบบ
-1.699817	ต้มยำ ใส่
-1.30749	ต้มยำ ไก่
-1.122269	ต้มยำ ไม่	0.453514
-0.2848432	ต้อง ใส่
-0.1935466	ถั่ว งอก	0.3670022
-0.5615314	ถั่วงอก </s>
-0.8869032	ถั่วงอก เยอะ
-0.9838132	ที่ ครับ
-0.1514379	ที่ นึง	0.4153813
-0.2848432	ทุก อย่าง
-0.5858732	ธรรมดา ที่
-0.5858732	ธรรมดา ไม่
-0.4365927	นะ ครับ	0.5425884
-0.2848432	นี้ เอา
-0.1597008	นึง </s>
-0.5664112	นึง ครับ	0.6802449
-0.4945766	น้อย </s>
-0.4945766	น้อย น้อย	0.003551289
-1.326236	น้ำ ครับ
-1.326236	น้ำ ต้มยำ
-1.326236	น้ำ พิเศษ
-1.326236	น้ำ สอง
-1.326236	น้ำ สี่
-1.326236	น้ำ หนึ่ง
-0.3424227	น้ำ ไม่	0.090216
-0.5914866	น้ำตก </s>
-0.9838132	น้ำตก พิเศษ
-0.5914866	น้ำตก ไม่	0.0685041
-0.4945766	น้ำใส </s>
-0.4945766	น้ำใส ไม่	0.0685041
-1.212445	บะหมี่ ต้มยำ	-0.02617645
-1.397667	บะหมี่ น้ำ
-1.397667	บะหมี่ พิเศษ
-1.397667	บะหมี่ ลูกชิ้น
-1.212445	บะหมี่ หมูแดง	0.02628753
-1.464621	บะหมี่ เกี๊ยว
-1.789993	บะหมี่ เนื้อ
-1.789993	บะหมี่ เพิ่ม
-0.80618	บะหมี่ แห้ง	0.09285463
-1.789993	บะหมี่ ใส่
-1.464621	บะหมี่ ไก่	0.02628756
-0.2848432	บาท </s>
-0.2848432	ปกติ </s>
-0.2848432	ผม เอา
-0.1180993	ผัก </s>
-1.607063	ผัก ครับ
-1.607063	ผัก นะ
-1.607063	ผัก เยอะ
-1.214736	ผัก ไม่	-0.1522813
-0.2848432	พริก เยอะ
-0.7072954	พิเศษ </s>
-1.284843	พิเศษ ชาม
-1.284843	พิเศษ ที่
-1.284843	พิเศษ สี่
-1.284843	พิเศษ หมูแดง
-0.2848432	พี่ </s>
-0.5858732	มาม่า ชาม
-0.5858732	มาม่า แห้ง
-0.5858732	ยำ พิเศษ
-0.5858732	ยำ ไม่
-0.6706679	ลูกชิ้น </s>
-1.062994	ลูกชิ้น พิเศษ
-1.062994	ลูกชิ้น เนื้อ
-1.062994	ลูกชิ้น ใส่
-1.062994	ลูกชิ้น ไม่
-0.2848432	วัน นี้
-0.5858732	วุ้นเส้น ต้มยำ
-0.5858732	วุ้นเส้น เย็นตาโฟ
-0.7619645	สอง </s>
-0.7619645	สอง ครับ
-0.7619645	สอง ชาม
-0.5858732	สั่ง เป็น
-0.5858732	สั่ง เย็นตาโฟ
-0.2848432	สาม </s>
-0.2848432	สิบ ห้า
-0.7619645	สี่ กลับบ้าน
-0.7619645	สี่ สิบ
-0.7619645	สี่ เล็ก
-0.5858732	สุโขทัย </s>
-0.5858732	สุโขทัย ไม่
-0.5858732	หนึ่ง จาน
-0.5858732	หนึ่ง ที่
-0.8869032	หมี่ ต้มยำ
-0.5615314	หมี่ แห้ง	-0.07324153
-0.8467591	หมู ต้มยำ
-1.239086	หมู น้ำตก
-0.8467591	หมู น้ำใส
-0.8467591	หมู เส้น	-0.0005663782
-0.8467591	หมู แห้ง
-0.2848432	หมูสับ ใส่
-1.284843	หมูแดง ชาม
-0.8925167	หมูแดง น้ำตก
-0.8925167	หมูแดง น้ำใส
-1.284843	หมูแดง พิเศษ
-1.284843	หมูแดง แห้ง
-1.284843	หมูแดง ใส่
-0.8925167	หมูแดง ไม่
-0.2848432	ห้า บาท
-0.1935466	อยาก ได้
-0.2848432	อย่าง </s>
-0.2848432	อะ ครับ
-0.7619645	เกาเหลา ลูกชิ้น
-0.3696379	เกาเหลา เนื้อ
-0.8869032	เกี๊ยว ที่
-0.8869032	เกี๊ยว น้ำ
-0.8869032	เกี๊ยว หมูแดง
-0.8869032	เกี๊ยว เพิ่ม
-0.4365927	เครื่อง ใน	0.1395627
-0.4365927	เครื่องใน </s>
-0.1935466	เจียว </s>
-0.2848432	เด็ก เส้น
-1.187933	เนื้อ ครับ
-0.7956066	เนื้อ ชาม	0.790174
-1.187933	เนื้อ ตุ๋น
-1.187933	เนื้อ เปื่อย
-1.187933	เนื้อ เส้น
-1.187933	เนื้อ เอา
-1.187933	เนื้อ ไม่
-0.2848432	เปื่อย ไม่
-0.2848432	เป็ด พิเศษ
-0.3696379	เป็น บะหมี่
-0.7619645	เป็น เกี๊ยว
-1.000864	เผ็ด </s>
-1.326236	เผ็ด ครับ
-1.326236	เผ็ด ที่
-1.326236	เผ็ด นะ
-1.326236	เผ็ด น้อย
-1.326236	เผ็ด ปกติ
-1.000864	เผ็ด เผ็ด
-0.8045694	เพิ่ม ลูกชิ้น	0.002049804
-1.129941	เพิ่ม เครื่อง
-1.129941	เพิ่ม เนื้อ
-1.129941	เพิ่ม เส้น
-1.129941	เพิ่ม ไข่
-0.7376227	เยอะ </s>
-0.7376227	เยอะ เยอะ	-0.04634386
-1.187933	เย็นตาโฟ กลับบ้าน
-0.7956066	เย็นตาโฟ ชาม	0.790174
-0.8625614	เย็นตาโฟ เส้น	0.06126851
-0.7956066	เย็นตาโฟ ไม่	0.00155732
-0.8869032	เรือ เนื้อ
-0.5615314	เรือ เส้น
-0.2848432	เลือด </s>
-1.828911	เล็ก </s>
-0.640978	เล็ก ต้มยำ	-0.03755888
-1.251363	เล็ก น้ำ	0.2151259
-1.828911	เล็ก น้ำตก
-1.436585	เล็ก ยำ
-0.69897	เล็ก หมู	0.105313
-1.828911	เล็ก หมูสับ
-1.828911	เล็ก อะ
-1.828911	เล็ก เนื้อ
-1.436585	เล็ก เย็นตาโฟ	-0.0882957
-0.9965359	เล็ก แห้ง	-0.04031349
-1.828911	เล็ก ไม่
-1.992413	เส้น </s>
-1.992413	เส้น น้อย
-1.992413	เส้น บะหมี่
-1.992413	เส้น มาม่า
-1.667042	เส้น หมี่	0.03710108
-0.2604122	เส้น เล็ก	-0.04695567
-0.5034502	เส้น ใหญ่	0.05306844
-1.068608	เอา ก๋วยเตี๋ยว
-1.460935	เอา ต้มยำ
-1.460935	เอา ถั่วงอก
-0.4771213	เอา บะหมี่	-0.04325226
-1.460935	เอา วุ้นเส้น
-1.460935	เอา เครื่องใน
-1.460935	เอา เป็น
-1.460935	เอา เย็นตาโฟ
-1.068608	เอา เส้น
-0.5858732	แบบ เผ็ด
-0.5858732	แบบ ไม่
-1.515292	แห้ง </s>
-1.515292	แห้ง จาน
-1.18992	แห้ง ต้มยำ	-0.009479567
-1.515292	แห้ง ธรรมดา
-1.515292	แห้ง น้ำตก
-1.515292	แห้ง พิเศษ
-1.122966	แห้ง สอง
-1.515292	แห้ง เพิ่ม
-1.515292	แห้ง แบบ
-0.5314789	แห้ง ไม่	0.1571628
-0.2848432	โรย กระเทียม
-0.3696379	ใน </s>
-0.7619645	ใน ครับ
-1.563597	ใส่ กระเทียม
-1.563597	ใส่ ตับ
-1.17127	ใส่ ถั่ว	0.2801154
-1.238225	ใส่ ถั่วงอก	0.03710108
-1.563597	ใส่ ทุก
-0.7312214	ใส่ ผัก
-1.563597	ใส่ พริก
-1.563597	ใส่ หมูแดง
-1.17127	ใส่ เครื่อง	0.03379966
-1.17127	ใส่ เครื่องใน	0.03379966
-1.563597	ใส่ เลือด
-1.488963	ใหญ่ ครับ
-1.488963	ใหญ่ ชาม
-1.163591	ใหญ่ ต้มยำ	-0.06815815
-1.488963	ใหญ่ ธรรมดา
-1.488963	ใหญ่ นะ
-1.096637	ใหญ่ น้ำ	0.09917291
-1.488963	ใหญ่ พิเศษ
-1.488963	ใหญ่ หมูแดง
-1.488963	ใหญ่ เพิ่ม
-1.096637	ใหญ่ เย็นตาโฟ	-0.0882957
-1.488963	ใหญ่ แห้ง
-1.488963	ใหญ่ ไม่
-0.9838132	ไก่ </s>
-0.9838132	ไก่ ฉีก
-0.5914866	ไก่ ตุ๋น
-0.9838132	ไก่ ไม่
-0.2848432	ไข่ ต้ม
-0.5858732	ได้ ก๋วยเตี๋ยว
-0.5858732	ได้ เย็นตาโฟ
-1.897627	ไม่ กระเทียม
-1.572255	ไม่ งอก	0.4288371
-1.897627	ไม่ ต้อง
-0.3823349	ไม่ ผัก	-0.3417169
-1.572255	ไม่ เผ็ด	-0.05657202
-1.505301	ไม่ เอา
-1.897627	ไม่ โรย
-0.4988405	ไม่ ใส่	0.1359139

\3-grams:
-0.9436438	<s> ก๋วยเตี๋ยว เรือ
-1.155426	<s> ขอ บะหมี่
-0.4338088	<s> ขอ เส้น
-0.575667	นะ ครับ </s>
-0.8032438	นึง ครับ </s>
-0.8032438	นึง ครับ ไม่
-0.5022138	ถั่ว งอก </s>
-0.6783051	ไม่ งอก </s>
-0.5022138	เนื้อ ชาม นึง
-0.5022138	เย็นตาโฟ ชาม นึง
-0.9793351	บะหมี่ ต้มยำ สุโขทัย
-1.104274	เล็ก ต้มยำ เพิ่ม
-1.104274	เล็ก ต้มยำ ไก่
-1.104274	เล็ก ต้มยำ ไม่
-0.6783051	แห้ง ต้มยำ </s>
-0.6783051	ใหญ่ ต้มยำ ไม่
-0.5022138	ใส่ ถั่ว งอก
-0.6783051	ใส่ ถั่วงอก </s>
-0.20412	ชาม นึง </s>
-1.001636	ชาม นึง ครับ
-0.7006058	ที่ นึง </s>
-0.5022138	น้อย น้อย </s>
-0.9793351	เล็ก น้ำ ไม่
-0.5022138	ใหญ่ น้ำ ไม่
-1.440969	<s> บะหมี่ ต้มยำ
-1.543607	<s> บะหมี่ ลูกชิ้น
-0.8071508	<s> บะหมี่ หมูแดง
-0.8219889	<s> บะหมี่ แห้ง
-1.440969	<s> บะหมี่ ไก่
-0.9001538	เอา บะหมี่ เกี๊ยว
-0.05435766	ไม่ ผัก </s>
-1.431633	ไม่ ผัก ไม่
-0.6783051	เพิ่ม ลูกชิ้น </s>
-0.6783051	เส้น หมี่ แห้ง
-0.5022138	ก๋วยเตี๋ยว หมู เส้น
-1.046282	เล็ก หมู ต้มยำ
-1.046282	เล็ก หมู น้ำใส
-1.046282	เล็ก หมู แห้ง
-0.9793351	บะหมี่ หมูแดง น้ำตก
-0.9793351	บะหมี่ หมูแดง น้ำใส
-0.5022138	<s> อยาก ได้
-0.5022138	<s> เกาเหลา เนื้อ
-0.5022138	ใส่ เครื่อง ใน
-0.5022138	ใส่ เครื่องใน </s>
-0.5022138	กระเทียม เจียว </s>
-0.6783051	ไม่ เผ็ด </s>
-0.6783051	ต้มยำ เพิ่ม ลูกชิ้น
-0.575667	เยอะ เยอะ </s>
-0.5022138	เล็ก เย็นตาโฟ ชาม
-0.5022138	ใหญ่ เย็นตาโฟ ไม่
-0.7006058	ก๋วยเตี๋ยว เรือ เส้น
-0.2577175	<s> เล็ก น้ำ
-0.9793351	<s> เล็ก แห้ง
-0.544068	เส้น เล็ก ต้มยำ
-1.648342	เส้น เล็ก น้ำ
-1.648342	เส้น เล็ก ยำ
-0.60206	เส้น เล็ก หมู
-1.648342	เส้น เล็ก เย็นตาโฟ
-1.589908	<s> เส้น หมี่
-0.148939	<s> เส้น เล็ก
-0.9560898	<s> เส้น ใหญ่
-0.5022138	ก๋วยเตี๋ยว เส้น ใหญ่
-0.7006058	ขอ เส้น เล็ก
-0.5022138	หมู เส้น ใหญ่
-0.6783051	เย็นตาโฟ เส้น ใหญ่
-1.201184	<s> เอา ก๋วยเตี๋ยว
-0.30103	<s> เอา บะหมี่
-0.9001538	บะหมี่ แห้ง ไม่
-0.6783051	หมี่ แห้ง ต้มยำ
-0.8032438	เล็ก แห้ง สอง
-0.6783051	เครื่อง ใน </s>
-1.315127	ไม่ ใส่ ถั่ว
-1.315127	ไม่ ใส่ ถั่วงอก
-1.315127	ไม่ ใส่ ผัก
-1.315127	ไม่ ใส่ เครื่อง
-1.315127	ไม่ ใส่ เครื่องใน
-1.302666	เส้น ใหญ่ ต้มยำ
-1.405304	เส้น ใหญ่ น้ำ
-1.405304	เส้น ใหญ่ เย็นตาโฟ
-0.6783051	บะหมี่ ไก่ ตุ๋น
-0.876697	ต้มยำ ไม่ ผัก
-0.9793351	ต้มยำ ไม่ ใส่
-0.7975158	น้ำ ไม่ ใส่
-0.5022138	น้ำตก ไม่ ผัก
-0.5022138	น้ำใส ไม่ ผัก
-0.5022138	ผัก ไม่ งอก
-0.5022138	เย็นตาโฟ ไม่ ใส่
-0.7975158	แห้ง ไม่ ผัก

\end\
