
\data\
ngram 1=85

\1-grams:
-0.8259397	</s>
-99	<s>
-2.33109	กระเทียม
-2.507181	กลับบ้าน
-1.766818	ก๋วยเตี๋ยว
-1.808211	ขอ
-1.529457	ครับ
-2.109241	งอก
-2.507181	จาน
-2.808211	ฉีก
-1.853969	ชาม
-2.808211	ตับ
-2.33109	ตุ๋น
-2.808211	ต้ม
-1.393238	ต้มยำ
-2.808211	ต้อง
-2.507181	ถั่ว
-2.206151	ถั่วงอก
-2.109241	ที่
-2.808211	ทุก
-2.507181	ธรรมดา
-2.33109	นะ
-2.808211	นี้
-1.694268	นึง
-2.206151	น้อย
-1.766818	น้ำ
-2.109241	น้ำตก
-2.206151	น้ำใส
-1.303061	บะหมี่
-2.808211	บาท
-2.808211	ปกติ
-2.808211	ผม
-1.485992	ผัก
-2.808211	พริก
-1.808211	พิเศษ
-2.808211	พี่
-2.507181	มาม่า
-2.507181	ยำ
-2.03006	ลูกชิ้น
-2.808211	วัน
-2.507181	วุ้นเส้น
-2.33109	สอง
-2.507181	สั่ง
-2.808211	สาม
-2.808211	สิบ
-2.33109	สี่
-2.507181	สุโขทัย
-2.507181	หนึ่ง
-2.206151	หมี่
-1.853969	หมู
-2.808211	หมูสับ
-1.808211	หมูแดง
-2.808211	ห้า
-2.507181	อยาก
-2.808211	อย่าง
-2.808211	อะ
-2.33109	เกาเหลา
-2.206151	เกี๊ยว
-2.33109	เครื่อง
-2.33109	เครื่องใน
-2.507181	เจียว
-2.808211	เด็ก
-1.905121	เนื้อ
-2.808211	เปื่อย
-2.808211	เป็ด
-2.33109	เป็น
-1.766818	เผ็ด
-1.963113	เพิ่ม
-2.03006	เยอะ
-1.905121	เย็นตาโฟ
-2.206151	เรือ
-2.808211	เลือด
-1.264143	เล็ก
-1.100641	เส้น
-1.63212	เอา
-2.507181	แบบ
-1.577762	แห้ง
-2.808211	โรย
-2.33109	ใน
-1.529457	ใส่
-1.604091	ใหญ่
-2.109241	ไก่
-2.808211	ไข่
-2.507181	ได้
-1.195427	ไม่

\end\
