
\data\
ngram 1=91
ngram 2=278

\1-grams:
-0.9314587	</s>
-99	<s>	-0.9704055
-1.647251	กรอบ
-2.037057	กระเทียม	-0.3150456
-2.252976	กลับบ้าน	-0.1389543
-1.647251	กัน
-1.647251	ก็
-1.893495	ก๋วยเตี๋ยว	-0.4243042
-2.252976	ขอ	-0.3709506
-1.312021	ครับ	-0.7726094
-2.252976	งอก	-0.4979587
-2.252976	จาน	-0.1681016
-2.701609	ฉีก	-0.1589731
-1.627629	ชาม	-0.8213142
-2.701609	ตับ	-0.1399332
-2.252976	ตุ๋น	-0.09503888
-2.701609	ต้ม	-0.1399332
-1.511945	ต้มยำ	-0.3762169
-2.701609	ต้อง	-0.1836605
-2.701609	ถั่ว	-0.4926173
-2.252976	ถั่วงอก	-0.4346313
-1.647251	ทอด
-1.785782	ที่	-0.5660416
-2.701609	ทุก	-0.1931555
-2.252976	ธรรมดา	-0.1511939
-2.037057	นะ	-0.6494353
-2.701609	นี้	-0.1868486
-2.037057	นึง	-0.9281791
-2.037057	น้อย	-0.4364229
-1.893495	น้ำ	-0.2889519
-1.893495	น้ำตก	-0.3049526
-2.252976	น้ำใส	-0.4010487
-1.785782	บะหมี่	-0.5618832
-2.701609	บาท	-0.1399332
-2.701609	ปกติ	-0.1399332
-2.701609	ผม	-0.1868486
-2.252976	ผัก	-0.6833582
-2.701609	พริก	-0.1884339
-1.511945	พิเศษ	-0.4074836
-2.701609	พี่	-0.1399332
-2.252976	มาม่า	-0.1730482
-2.701609	ยำ	-0.1442422
-1.647251	ละ
-2.037057	ลูกชิ้น	-0.1350164
-2.701609	วัน	-0.1931555
-2.252976	วุ้นเส้น	-0.1714056
-2.252976	สอง	-0.1028172
-2.701609	สั่ง	-0.1811693
-2.701609	สาม	-0.1399332
-2.701609	สิบ	-0.1931555
-2.037057	สี่	-0.1866814
-2.701609	สุโขทัย	-0.1000187
-2.252976	หนึ่ง	-0.1843756
-2.252976	หมี่	-0.4707868
-2.252976	หมู	-0.3983606
-2.701609	หมูสับ	-0.1836605
-1.785782	หมูแดง	-0.2534379
-2.701609	ห้า	-0.1931555
-2.701609	อยาก	-0.4941855
-2.701609	อย่าง	-0.1399332
-2.701609	อะ	-0.1723141
-2.252976	เกาเหลา	-0.3556484
-2.252976	เกี๊ยว	-0.166265
-2.252976	เครื่อง	-0.6702767
-2.252976	เครื่องใน	-0.6170545
-2.701609	เจียว	-0.4409632
-2.701609	เด็ก	-0.1772132
-1.627629	เนื้อ	-0.1486718
-2.701609	เปื่อย	-0.1589731
-2.701609	เป็ด	-0.1804488
-2.037057	เป็น	-0.3604669
-1.785782	เผ็ด	-0.2829925
-1.785782	เพิ่ม	-0.3047445
-1.893495	เยอะ	-0.6107225
-1.699546	เย็นตาโฟ	-0.4271975
-2.701609	เรือ	-0.4674702
-2.701609	เลือด	-0.1399332
-2.037057	เล็ก	-0.4852339
-1.420684	เส้น	-0.9781814
-1.785782	เอา	-0.3484486
-2.252976	แบบ	-0.1511939
-1.647251	และ
-1.627629	แห้ง	-0.2647951
-2.701609	โรย	-0.1900135
-2.701609	ใน	-0.291357
-1.627629	ใส่	-0.4055062
-2.701609	ใหญ่	-0.1545085
-2.252976	ไก่	-0.1928258
-2.701609	ไข่	-0.1931555
-2.701609	ได้	-0.1795571
-1.110544	ไม่	-0.8671938

\2-grams:
-1.178794	<s> ก๋วยเตี๋ยว
-1.06005	<s> ขอ
-0.652664	<s> บะหมี่
-2.425614	<s> ผม
-2.425614	<s> มาม่า
-2.425614	<s> วัน
-2.425614	<s> วุ้นเส้น
-1.848638	<s> สั่ง
-2.425614	<s> หมี่
-1.848638	<s> อยาก
-1.848638	<s> เกาเหลา
-1.253083	<s> เล็ก
-0.4999653	<s> เส้น
-1.010982	<s> เอา
-0.9204641	กระเทียม </s>
-0.3434884	กระเทียม เจียว
-0.7443728	กลับบ้าน </s>
-0.7443728	กลับบ้าน สาม
-0.9077598	ก๋วยเตี๋ยว หมู
-1.484735	ก๋วยเตี๋ยว เด็ก
-1.484735	ก๋วยเตี๋ยว เนื้อ
-1.484735	ก๋วยเตี๋ยว เป็ด
-0.5150154	ก๋วยเตี๋ยว เรือ
-0.9077598	ก๋วยเตี๋ยว เส้น
-1.443343	ขอ ก๋วยเตี๋ยว
-0.8663672	ขอ บะหมี่
-1.443343	ขอ เกาเหลา
-1.443343	ขอ เป็น
-1.443343	ขอ เผ็ด
-0.4736227	ขอ เส้น
-0.1215903	ครับ </s>
-1.722096	ครับ ขอ
-1.722096	ครับ พี่
-1.145121	ครับ ไม่
-0.1725927	งอก </s>
-1.142313	งอก ไม่
-0.7443728	จาน ครับ
-0.7443728	จาน นึง
-0.4433428	ฉีก ไม่
-1.397585	ชาม ครับ
-0.08734734	ชาม นึง
-0.4433428	ตับ </s>
-0.9204641	ตุ๋น </s>
-0.9204641	ตุ๋น สี่
-0.9204641	ตุ๋น ไม่
-0.4433428	ต้ม </s>
-0.7754576	ต้มยำ </s>
-1.858316	ต้มยำ ครับ
-1.28134	ต้มยำ สุโขทัย
-1.858316	ต้มยำ หนึ่ง
-1.042007	ต้มยำ เผ็ด
-1.042007	ต้มยำ เพิ่ม
-1.858316	ต้มยำ เส้น
-1.858316	ต้มยำ แบบ
-1.858316	ต้มยำ ใส่
-1.28134	ต้มยำ ไก่
-0.6857848	ต้มยำ ไม่
-0.4433428	ต้อง ใส่
-0.1673972	ถั่ว งอก
-0.2290939	ถั่วงอก </s>
-1.045403	ถั่วงอก เยอะ
-1.142313	ที่ ครับ
-0.1725927	ที่ นึง
-0.4433428	ทุก อย่าง
-0.7443728	ธรรมดา ที่
-0.7443728	ธรรมดา ไม่
-0.1041551	นะ ครับ
-0.4433428	นี้ เอา
-0.1917218	นึง </s>
-0.5875661	นึง ครับ
-0.4684272	น้อย </s>
-0.4684272	น้อย น้อย
-1.484735	น้ำ ครับ
-1.484735	น้ำ ต้มยำ
-1.484735	น้ำ พิเศษ
-1.484735	น้ำ สอง
-1.484735	น้ำ สี่
-1.484735	น้ำ หนึ่ง
-0.4018769	น้ำ ไม่
-0.5653372	น้ำตก </s>
-1.142313	น้ำตก พิเศษ
-0.5653372	น้ำตก ไม่
-0.4684272	น้ำใส </s>
-0.4684272	น้ำใส ไม่
-0.7759613	บะหมี่ ต้มยำ
-1.371517	บะหมี่ น้ำ
-1.371517	บะหมี่ พิเศษ
-1.371517	บะหมี่ ลูกชิ้น
-0.7759613	บะหมี่ หมูแดง
-1.132184	บะหมี่ เกี๊ยว
-1.948493	บะหมี่ เนื้อ
-1.948493	บะหมี่ เพิ่ม
-0.8656342	บะหมี่ แห้ง
-1.948493	บะหมี่ ใส่
-1.132184	บะหมี่ ไก่
-0.4433428	บาท </s>
-0.4433428	ปกติ </s>
-0.4433428	ผม เอา
-0.1358198	ผัก </s>
-1.765562	ผัก ครับ
-1.765562	ผัก นะ
-1.765562	ผัก เยอะ
-1.188586	ผัก ไม่
-0.4433428	พริก เยอะ
-0.2708114	พิเศษ </s>
-1.443343	พิเศษ ชาม
-1.443343	พิเศษ ที่
-1.443343	พิเศษ สี่
-1.443343	พิเศษ หมูแดง
-0.4433428	พี่ </s>
-0.7443728	มาม่า ชาม
-0.7443728	มาม่า แห้ง
-0.7443728	ยำ พิเศษ
-0.7443728	ยำ ไม่
-0.6445184	ลูกชิ้น </s>
-1.221494	ลูกชิ้น พิเศษ
-1.221494	ลูกชิ้น เนื้อ
-1.221494	ลูกชิ้น ใส่
-1.221494	ลูกชิ้น ไม่
-0.4433428	วัน นี้
-0.7443728	วุ้นเส้น ต้มยำ
-0.7443728	วุ้นเส้น เย็นตาโฟ
-0.9204641	สอง </s>
-0.9204641	สอง ครับ
-0.9204641	สอง ชาม
-0.7443728	สั่ง เป็น
-0.7443728	สั่ง เย็นตาโฟ
-0.4433428	สาม </s>
-0.4433428	สิบ ห้า
-0.9204641	สี่ กลับบ้าน
-0.9204641	สี่ สิบ
-0.9204641	สี่ เล็ก
-0.7443728	สุโขทัย </s>
-0.7443728	สุโขทัย ไม่
-0.7443728	หนึ่ง จาน
-0.7443728	หนึ่ง ที่
-1.045403	หมี่ ต้มยำ
-0.2290939	หมี่ แห้ง
-0.8206097	หมู ต้มยำ
-1.397585	หมู น้ำตก
-0.8206097	หมู น้ำใส
-0.8206097	หมู เส้น
-0.8206097	หมู แห้ง
-0.4433428	หมูสับ ใส่
-1.443343	หมูแดง ชาม
-0.8663672	หมูแดง น้ำตก
-0.8663672	หมูแดง น้ำใส
-1.443343	หมูแดง พิเศษ
-1.443343	หมูแดง แห้ง
-1.443343	หมูแดง ใส่
-0.8663672	หมูแดง ไม่
-0.4433428	ห้า บาท
-0.1673972	อยาก ได้
-0.4433428	อย่าง </s>
-0.4433428	อะ ครับ
-0.9204641	เกาเหลา ลูกชิ้น
-0.3434884	เกาเหลา เนื้อ
-1.045403	เกี๊ยว ที่
-1.045403	เกี๊ยว น้ำ
-1.045403	เกี๊ยว หมูแดง
-1.045403	เกี๊ยว เพิ่ม
-0.1041551	เครื่อง ใน
-0.1041551	เครื่องใน </s>
-0.1673972	เจียว </s>
-0.4433428	เด็ก เส้น
-1.346433	เนื้อ ครับ
-0.7694572	เนื้อ ชาม
-1.346433	เนื้อ ตุ๋น
-1.346433	เนื้อ เปื่อย
-1.346433	เนื้อ เส้น
-1.346433	เนื้อ เอา
-1.346433	เนื้อ ไม่
-0.4433428	เปื่อย ไม่
-0.4433428	เป็ด พิเศษ
-0.3434884	เป็น บะหมี่
-0.9204641	เป็น เกี๊ยว
-0.6684266	เผ็ด </s>
-1.484735	เผ็ด ครับ
-1.484735	เผ็ด ที่
-1.484735	เผ็ด นะ
-1.484735	เผ็ด น้อย
-1.484735	เผ็ด ปกติ
-0.6684266	เผ็ด เผ็ด
-0.4721319	เพิ่ม ลูกชิ้น
-1.288441	เพิ่ม เครื่อง
-1.288441	เพิ่ม เนื้อ
-1.288441	เพิ่ม เส้น
-1.288441	เพิ่ม ไข่
-0.4051851	เยอะ </s>
-0.4051851	เยอะ เยอะ
-1.346433	เย็นตาโฟ กลับบ้าน
-0.7694572	เย็นตาโฟ ชาม
-0.5301239	เย็นตาโฟ เส้น
-0.7694572	เย็นตาโฟ ไม่
-1.045403	เรือ เนื้อ
-0.2290939	เรือ เส้น
-0.4433428	เลือด </s>
-1.987411	เล็ก </s>
-0.6771729	เล็ก ต้มยำ
-0.8148794	เล็ก น้ำ
-1.987411	เล็ก น้ำตก
-1.410435	เล็ก ยำ
-0.7405909	เล็ก หมู
-1.987411	เล็ก หมูสับ
-1.987411	เล็ก อะ
-1.987411	เล็ก เนื้อ
-1.410435	เล็ก เย็นตาโฟ
-1.017691	เล็ก แห้ง
-1.987411	เล็ก ไม่
-2.150913	เส้น </s>
-2.150913	เส้น น้อย
-2.150913	เส้น บะหมี่
-2.150913	เส้น มาม่า
-1.334604	เส้น หมี่
-0.2704494	เส้น เล็ก
-0.5211706	เส้น ใหญ่
-1.042458	เอา ก๋วยเตี๋ยว
-1.619434	เอา ต้มยำ
-1.619434	เอา ถั่วงอก
-0.5365755	เอา บะหมี่
-1.619434	เอา วุ้นเส้น
-1.619434	เอา เครื่องใน
-1.619434	เอา เป็น
-1.619434	เอา เย็นตาโฟ
-1.042458	เอา เส้น
-0.7443728	แบบ เผ็ด
-0.7443728	แบบ ไม่
-1.673792	แห้ง </s>
-1.673792	แห้ง จาน
-0.8574828	แห้ง ต้มยำ
-1.673792	แห้ง ธรรมดา
-1.673792	แห้ง น้ำตก
-1.673792	แห้ง พิเศษ
-1.096816	แห้ง สอง
-1.673792	แห้ง เพิ่ม
-1.673792	แห้ง แบบ
-0.5909331	แห้ง ไม่
-0.4433428	โรย กระเทียม
-0.3434884	ใน </s>
-0.9204641	ใน ครับ
-1.722096	ใส่ กระเทียม
-1.722096	ใส่ ตับ
-1.145121	ใส่ ถั่ว
-0.9057875	ใส่ ถั่วงอก
-1.722096	ใส่ ทุก
-0.7523763	ใส่ ผัก
-1.722096	ใส่ พริก
-1.722096	ใส่ หมูแดง
-1.145121	ใส่ เครื่อง
-1.145121	ใส่ เครื่องใน
-1.722096	ใส่ เลือด
-1.647463	ใหญ่ ครับ
-1.647463	ใหญ่ ชาม
-0.8311539	ใหญ่ ต้มยำ
-1.647463	ใหญ่ ธรรมดา
-1.647463	ใหญ่ นะ
-1.070487	ใหญ่ น้ำ
-1.647463	ใหญ่ พิเศษ
-1.647463	ใหญ่ หมูแดง
-1.647463	ใหญ่ เพิ่ม
-1.070487	ใหญ่ เย็นตาโฟ
-1.647463	ใหญ่ แห้ง
-1.647463	ใหญ่ ไม่
-1.142313	ไก่ </s>
-1.142313	ไก่ ฉีก
-0.5653372	ไก่ ตุ๋น
-1.142313	ไก่ ไม่
-0.4433428	ไข่ ต้ม
-0.7443728	ได้ ก๋วยเตี๋ยว
-0.7443728	ได้ เย็นตาโฟ
-2.056127	ไม่ กระเทียม
-1.239818	ไม่ งอก
-2.056127	ไม่ ต้อง
-0.3989927	ไม่ ผัก
-1.239818	ไม่ เผ็ด
-1.479151	ไม่ เอา
-2.056127	ไม่ โรย
-0.5207551	ไม่ ใส่

\end\
